3
128 784
0.013352054215948123 0.003215025712305822 -0.005519352656346135 0.044941377799797066 -0.012512944589245595 -0.07569700383713941 -0.013401252589519713 0.05008237883780353 0.01822390327857347 0.03486204005411861 -0.051541099770400396 0.002627162381184961 0.010052356699716797 -0.04076879238717142 0.06806891290204797 -0.06312624879642631 0.025692170564034084 -0.027826365637862532 -0.051052861470657296 0.027740862475871625 0.06792983924871623 -0.05978061209009819 -0.014500471798754064 0.0566372444120504 -0.01466072300611966 -0.07580631146486509 0.010732200239269157 0.04931741338783052 -0.057074075919427494 0.06537279901771445 -0.003237967130846245 -0.007946425911606159 0.033187423843341834 0.05436332906047153 0.045291700402483454 0.020214061176794626 -0.044705376959069947 0.022904201112658187 0.06853328653048835 -0.04109338772296025 -0.06657122008192543 0.07548002002416121 -0.03338183865114222 -0.06578034682389122 0.07088604473700544 -0.023497749073145786 0.053091570891410644 -0.03860862219893169 -0.04012921806315487 -0.05896036448258069 -0.06101311350940407 0.06621838266924812 -0.038654249936636166 -0.010681279019539025 0.007056335312846995 -0.01841641318824698 -0.027331876005903498 -0.05147411982963682 -0.04443952835820158 -0.02458480313172194 0.017364957314724205 -0.004546984614746369 0.0031860011141143924 0.0675208150841704 -0.0652301397715489 -0.06979578459974028 0.04560132351245075 0.0027155559392193634 0.07055317275973788 -0.005508860193129891 -0.07810191177424189 -0.0045475703537349865 -0.07857543377848243 -0.03525839053113863 -0.025257763067284472 0.0711740644726295 0.04169019803961255 -0.017565138033185088 0.033618770223115005 -0.033748919401905574 -0.052813598460393095 0.014109372047986193 0.06052924287055628 0.007268926763272732 -0.08018522490926284 -0.05653609490317342 -0.06135946035393858 0.06488585623301577 -0.06513508416903638 -0.05423813584993291 0.021029724322939952 -0.07699056495784656 0.04547839582912483 0.06475259555191146 -0.07997648623748503 -0.05705010768246145 -0.011359980315185425 -0.05990891657632985 0.07426275144449049 0.00999080583570218 0.07595006453364542 0.03879101613792432 0.005119165792909358 0.022013805180265772 -0.0019864069855812516 -0.014614244836440235 0.07069468454972122 0.06983920686471953 0.03902185826040655 0.048753404454540294 -0.01985509427830178 0.00004799724605181188 0.03259052182084325 -0.07971228010796426 0.06544989032120452 0.07881834413350028 0.06876543995592432 0.030263950921259872 0.033366668283282094 0.014220734823367803 0.06769637248074017 0.02374561751154218 0.05913667433543951 0.002161975939807076 -0.04121052728679633 -0.03267584300640605 0.08023245364672546 0.0800936255747004 0.014160230795941281 0.043587392346612214 0.04283837835053775 -0.006317697750186549 -0.00700927397254697 -0.07536961608099296 0.04155671768750244 0.07831439255822215 0.052262705804870385 0.07036146440750676 0.022826799943120743 0.007325702200199027 -0.02840812886831958 -0.021496986761078876 -0.06079433659784803 -0.03563589757187165 -0.027922271294648818 0.01201814274949188 0.024997934494429927 -0.043774231828483307 0.001337231950832407 0.046427219036780376 -0.028495145327854826 0.039137426587337404 -0.046470535016647815 -0.05946882218400641 0.07903003952564863 -0.06741062718607664 -0.03236051124527702 -0.06035180565521797 -0.0805165324482464 -0.01741543435786766 0.028400179240521767 0.01268808311520768 0.02004260017613335 0.0017515054063658858 -0.04022276860200876 -0.036736325878120646 -0.007166345238145161 0.0570646824911023 0.008724685989843467 -0.03495077376983493 0.0810847230623713 0.05706314116813049 0.026929150084060077 -0.04506472087887981 0.033378020469922304 -0.06178894972809438 0.04379280762571479 -0.03248867756841735 0.005353061629424935 0.06005498593536138 0.0761519696846098 0.0066471047723768995 -0.003969212930350463 0.03995055135493822 0.021324206299118395 0.07771117038635278 -0.0774323028790809 0.016991411377337298 0.07452354882086953 -0.050474026632982345 -0.07718297930912175 -0.01962937242408444 -0.07830593462017744 0.08070526323100191 0.0695203934541212 0.016257423165111598 0.06878688008781789 0.03504466763906065 0.05883560026504134 0.028404845134268136 -0.010340327938509461 0.038368117422723794 0.0036809108253248873 0.002135819679910292 0.022494991421293187 0.05484398523566414 -0.0253840182979986 0.015808753143056034 0.07470221628448853 -0.07370489269504045 0.06762553855268488 -0.06613977391350073 -0.04267898777307893 -0.018619383003295104 -0.0607028186956598 -0.0678170128057252 -0.07558056075427767 -0.019575982549447472 0.07542378976111688 0.005501161358915041 0.07409056185825466 0.02052237336150936 0.0024291846426215263 -0.06805627894868624 -0.05569513212340558 -0.031060320486852908 -0.07459552710795736 -0.04664338897925775 0.042429354412612655 0.07609075890273687 0.028825205017682737 0.07768330888117242 -0.009407682805459991 -0.014995567112323971 0.030422664356044737 0.046389844900782656 0.05456875914546033 -0.07587773536216218 0.037579106684744165 -0.017857460767262634 -0.07274165172689434 0.002550248672789329 -0.056586629734597285 0.02862179215915149 0.07443804996467207 -0.0653730430882164 0.034140886807822166 -0.028991287175851893 0.0005256273549373719 -0.020431849795445323 0.04487451343559434 0.06901350374137055 0.03980750451182263 0.06974446596282946 -0.015664099030342743 0.035446856394287116 0.05753865886986137 0.02223066654252169 -0.034356181390046765 -0.012253985484505445 0.04415382559269082 0.0782829558847605 -0.06967216776284291 -0.01898608204924681 0.04253321045259911 -0.03903836591706152 0.07160502295329169 0.0033260292183258378 0.011583621338066646 0.0755339699541066 -0.07591743863025116 -0.03815116261719615 -0.013936203309213552 -0.03933244163785167 0.008130827181285452 0.08053185049726755 0.00036489253898200347 0.048370360465601586 -0.05944564062305628 -0.05985429841745832 -0.026046514777795446 0.05625206036823069 -0.017987670453782106 -0.011921975270248228 -0.0004834212877549565 0.0700629363452169 -0.06718417636858356 0.01756703854997828 -0.0662553960250795 0.0734061982176111 0.07645372769630318 0.06599870562024196 0.029563268927792305 -0.07295554110965208 0.029131557537599634 0.016383038418947768 0.04975745558185099 -0.06532533580335981 0.032453606503129576 -0.055014424932337005 0.06079081377895018 -0.057943381093517 0.06086848772427922 -0.06744908653310223 0.022321405700418767 0.02635501475553645 -0.016762924523867948 -0.07789846371396074 0.07344568090821144 0.0736944135269057 0.043457030824218715 -0.037036972541864506 -0.07105749425555087 0.004015721391664465 0.032860280082157134 -0.03599387821704552 -0.06456478832407916 0.05011208322257718 -0.011811102222215472 -0.05535762688577353 -0.07035651047884116 -0.07005284862658423 -0.023241343379457075 0.06878530394079735 0.07085730620968711 0.05022634538329035 0.018180062898388902 -0.009678969019123948 -0.04797390778264249 0.011452790559728199 -0.024653963314771973 0.03972865372515966 -0.0006260448789291995 -0.014240130005537296 -0.022608208331763198 0.04930171280305512 0.004941376560072083 0.07553065675936321 0.07178612553195285 -0.031174782829191013 -0.0624859035087629 -0.020332263289587857 -0.007297481878898476 0.0158166014713976 -0.014781882292524848 0.07771627328036343 0.01392914520727899 -0.030014681211488876 -0.05362252288872095 -0.06793160235782045 0.0423735173364958 0.060440645127264464 -0.049222225892066235 0.02287299060666262 0.029299327264637187 -0.026904602075784052 0.032389363309569805 -0.04188522087077111 -0.00909883609803655 0.049009356982354285 0.049028938295664876 -0.05318465897294079 -0.042409484233440264 0.06557014168951528 0.06555615292202396 0.0755913104319969 -0.07196564486281129 -0.004301824671505583 -0.06168015358330549 -0.041234573783446686 -0.014901695300847104 -0.07859087639335248 0.0018861520241769264 -0.04665601462319354 0.0008499930484092977 -0.07195082832541579 -0.026451156626640174 0.020199495357441838 0.06110312808535909 0.07552210847519644 -0.07668874719382666 0.018314826603565496 0.06332936742573902 -0.024947786957795162 -0.06182414777651859 -0.05325102258092025 -0.05713864272735755 0.014458966065098 0.05733093379696788 0.027866643464985213 -0.04545745388508651 0.02939489359468414 0.027056062816986845 -0.04240118999108661 0.03142582660140042 0.059065305506974364 -0.03472852359377577 -0.02595928023359937 0.08099793005085365 -0.042790237162566566 0.02456030951241571 -0.012052568474545 0.0783102057406514 0.06354271850877624 -0.01863259929633483 0.07531900722013798 0.03205707616480803 0.030876007976950712 -0.07758943790063814 0.0356283335014375 -0.019245829945129488 -0.040222311205880816 0.03602248424679022 0.018112245820731884 -0.06716399685214546 -0.03733862162453781 0.030573475451219412 -0.08032103892587839 0.07004662970112946 0.03806069208037767 0.08100731532083336 0.04351675044183641 -0.007606813705716406 -0.05414580256643915 -0.06767368691697848 0.07307117364578339 -0.0804215097812767 -0.009133040641279136 0.007714904909024559 -0.013974245296436205 0.03163987469419363 -0.02770722584412197 0.01458793235933574 -0.03704657959797662 0.05260331718145944 -0.03587267239785506 0.03180288463097168 -0.004712000144785636 -0.03569874198688458 0.021834953700632292 0.05798651033792149 -0.021624205885202162 0.0608490566604977 0.04711791136284138 -0.0779919214138648 0.02092798695994777 -0.06684288679175725 -0.011782141531063578 0.07774948885083857 -0.027801727434544933 -0.052719497837541915 -0.014595771471768534 -0.006880969184154359 0.007084946857028887 -0.060659490025032736 -0.009806495440926585 0.008765893490648505 -0.027289531397928564 -0.011408706939984276 -0.07205311373281892 -0.030207620567403073 -0.014436578129865471 -0.061976897838466494 -0.06760965485837785 0.01925665977103895 -0.017244114088665732 -0.07146744945350325 -0.06273106972184327 -0.06102997121951187 0.06759545926172084 0.07604416273920905 -0.061885047181539435 -0.006939824394853467 0.0019106289490910394 -0.06460053079098299 0.047120490608653476 -0.01575272570554491 0.009771574020845983 -0.0640665861161499 0.03187962890261835 -0.03503132662909157 -0.052726275383040616 0.07924744009410786 0.056533618014380865 -0.03781532908498298 -0.023645306952524293 0.030756076294917972 0.04498446685679611 0.04912268070671777 -0.04046668069609391 -0.04894808267114303 0.03359583809602357 0.069449329883749 0.06465576263873038 0.03425181673765247 0.06859671230315623 0.022684951243685622 -0.04124119715132407 0.046026240360591636 0.06894963235685153 -0.07031425296875814 0.05346381013379822 0.07290302085420997 -0.005665371252339194 0.024786666131234716 0.07213307148609771 0.044454775626021764 -0.072096468993609 -0.06879114969748712 0.023416144542725933 0.05106833384838025 -0.07320849771171313 -0.06257541173851718 -0.013032124698365427 -0.007766037716955221 0.06114760836688135 -0.05112336966921567 0.06487306288975647 -0.07083294924266749 0.008006994450394087 0.0438519084932608 -0.01323358929867445 0.0011428894350377083 0.08075927193125079 -0.007657852163892531 0.04662558950902987 -0.018414170927426893 -0.021671314438149576 0.04447720216231482 -0.06075952984784541 -0.07116380429563843 0.05480624488060315 0.022920757341684805 -0.06789948808844344 0.06097919647229902 -0.06634340047535915 -0.0008572375836458923 -0.03262516306218917 0.011887818392894434 0.07834694828473734 0.07462249565201001 -0.005822971601749133 -0.02215767065291703 0.007970813094720114 -0.04864611375111123 0.04577476442269304 0.01856427413505163 0.06748533746133342 0.03046395026761453 -0.04471351981879101 0.02202757488107318 -0.04552932309207381 0.018894746501187873 -0.01771066931911683 0.003534473963046042 -0.061298386299892496 0.02738813497423745 -0.027219250273319083 0.003990504625680652 -0.07690298209762307 -0.022497677405458515 -0.052867910303608344 0.06897333348354368 0.0112373901456332 0.02979958174969341 0.06291947998737818 0.06019392369180887 0.0011160050428077606 -0.040187397944145685 -0.07271519292835305 -0.05683371580277121 0.010321099775801382 0.031707439845164165 0.07235459020605337 -0.02175858856542924 -0.023242530796424042 -0.0015208440516679966 0.052841334719862465 -0.001171101975693964 0.07788349080827708 0.0763694760093992 0.03489066708404885 -0.03827402465605713 -0.025206637964457865 0.03567830027028793 0.010855991271950333 -0.01995106270902404 0.059670521789989106 -0.06878444535047694 -0.059807295923002005 0.07702965763420935 0.01739929934119601 0.07455800090946493 -0.019982233707476267 -0.019949376046638476 -0.01126076191689715 0.04026480999147708 0.04999113726179796 0.004288306595223723 -0.029708020185248873 -0.014033741466036323 0.0039433453852350114 -0.061311559686078265 -0.0190990035218545 0.02294382249513152 -0.022651455494475795 0.06585003994330504 0.03636390035351153 -0.056212499342405776 0.07418885307568837 -0.06922964188140865 0.02877630155319183 0.07261269933205997 -0.06436214673135572 -0.036643866366892826 0.012379734671179754 0.028894190022925897 -0.05034821376588923 -0.052560873615775563 0.018904096191716513 0.06371358032428695 -0.06052489432134063 -0.0721344488867578 0.0664985357202533 -0.02495782346014796 0.01013450768820262 -0.01828127601214445 -0.02809449374088724 -0.06358716411733026 0.03981378379392582 0.06526616166178503 -0.04558524099624299 0.030038320017486478 0.06186229710641636 -0.06843828660112963 0.019037775818968747 0.06096558729449275 -0.02901351700537084 0.005851123483596024 0.0807679521086693 0.012194801975941416 -0.01172993189707118 -0.03071681962070321 -0.047083028317200556 -0.04041166270275414 -0.0058704332297588036 -0.00638961998641939 0.025842737890867745 -0.03128002812965458 -0.025042145323931002 0.07960989000179428 -0.025376330643738648 -0.07196049528493491 0.017005221190009925 0.008587424093527835 0.053087412325888095 0.0027244096325595574 -0.015627775432404706 0.06411602863576368 0.041648881081005826 0.04137954214354103 0.07242791197623538 0.004508332942280355 -0.08029858519510046 0.07994931056210575 -0.05979358960045246 0.01204553190157763 -0.07444129834589312 -0.049439517984746835 0.04641676849839499 -0.03608829573118601 0.019155728271282563 -0.02256138622739004 -0.02736652623653748 -0.06025037105749097 -0.020622327974936017 -0.04349082533506124 -0.04615473566145901 -0.06699908526547069 -0.010996426991274302 0.023040559018971674 0.07548681743674196 0.058732393871083005 0.0191481213695347 -0.0449456269380624 -0.04951891160354447 0.036218700764755335 -0.024933127317469474 0.030195932604414624 -0.01350484824231328 0.050090092326824154 0.050758175384761656 -0.01620964804512323 -0.08080521467173868 -0.016120201909442813 0.009798698857646573 -0.003115731093919577 -0.060542400015591365 -0.05911293755375605 -0.07794715090675648 -0.062444256665946316 -0.07189146503109049 0.019518694496480832 -0.06185698791202167 -0.026814731781679466 0.01725904574938064 -0.013074609055776648 0.009106699836586227 0.07474180027454513 -0.0615291413244828 0.06252407164817941 0.05311312078326691 0.07078395815150301 0.05238277708525893 0.048572647925699486 0.016672458746084348 0.04333019227180353 0.060028622241977 -0.03395448228662896 0.007767539759004433 -0.03446608623887691 0.07492042702197704 -0.08035952871561902 -0.05165882915239781 -0.004468401391598709 0.056124965734416055 0.07906540474461474 0.059118778626951196 0.0019570120891538034 0.010307841104689366 -0.039571684136718896 0.0019854196746989794 0.05993241200695984 0.04518021472313816 0.0037574551419673197 -0.0604461549565255 0.006365612166369772 -0.07544175851701325 -0.07394610830486749 0.039371321215209185 -0.04441481416140674 -0.034765545183492855 -0.07188963023430248 0.06018767779848991 0.02636411183951648 0.005885581539870052 0.045605821480252856 -0.07228934315829967 0.0458141945372893 0.07265166638501058 -0.008383276077421495 0.017285452349618965 0.07674429970987515 -0.041724751352123966 -0.027859855268313263 -0.057953960805705626 -0.061578001731039306 0.04166410138096181 -0.04487297188600179 0.07950350102216028 0.027324450627342317 0.0781020119405946 -0.01650095884220161 -0.0693022586345697 -0.014396088336841042 0.07140674758619908 -0.014023940422598608 -0.02180089434572296 -0.042824992847369764 -0.04174031505799204 0.05397340071214063 0.0015363498937154274 0.005820634386852611 -0.055093649869788035 -0.03716127467978131 0.029673220082787014 0.0019023197497706895 0.010887981655340578 0.041237664436655344 -0.02868291894028218 -0.0679497414569486 -0.06666090077003808 0.0580796171534301 0.047146328693076944 
0.01843328812152857 -0.031274597315480206 0.015228408860388787 0.011397078578241876 -0.04690166520026603 -0.02331428238726415 0.0020535194239184734 -0.06421845001559132 0.040629430925541166 0.042837893608844435 0.08008098912851089 0.05651437459254513 -0.014255423957223234 0.06076952933548266 -0.0506575488409373 0.024097930674982837 0.0657375930144588 0.03230206062808101 0.013567083274243802 -0.07671443155387024 -0.06228101059039108 0.006241876731302151 0.02694366091012118 -0.0037760180973586965 -0.01721560376839984 -0.04528578998335181 0.02180450728412213 -0.023799197974194143 -0.049599669327920676 -0.03271374486649125 0.024401365151129936 -0.006137275940130665 -0.03264272382527182 -0.07357468550134875 0.013696561655740222 0.0700161347877879 -0.027648803856675334 0.017826953314241903 0.0369893362648296 -0.0053458686881694 0.04500073527752421 -0.05861240863102305 -0.009356351251168862 0.012971742592879532 -0.03853887824093917 -0.039207851918257076 -0.04693413556631473 0.06247771509827965 -0.041222239347120014 0.0352769559793578 -0.07068705113335058 -0.07137827171228073 0.06681200450808636 0.009317137861509228 0.05670099032423773 0.009702455762626822 -0.010117908476781817 0.023784244557891313 -0.03142673890082851 0.029611280413178565 -0.020841259819515734 0.06878781837308712 -0.012188151942360795 -0.06862312683511931 -0.026462824269305192 -0.04937484519386592 -0.07273351830970276 -0.03437739875378491 0.04556781673436647 0.053045718497044814 -0.04687977258235983 -0.0108549757845601 0.07905308186594412 -0.05250246537665185 -0.06274864680161686 0.016589501063420123 -0.06954308808271119 -0.06301677331829662 -0.029824596067845197 -0.06844730905135668 -0.052608478316991905 -0.007349717423191765 -0.07938041243813206 0.07564512846869056 0.014120973744025336 0.032193271508534044 0.06442781854185547 -0.027042028800894277 0.07955309175171676 0.05472812373707803 0.019962838751927475 -0.009325896676313214 0.013216462816407565 0.025680665559496815 -0.040639184000929134 -0.05116073103891352 -0.0397415866667748 -0.026993423946955586 0.0350334705365246 -0.033302317369346045 0.014289235086917637 0.026063536712375948 0.044116075266318694 -0.008070891443053063 0.05466570355602948 0.0473456345045265 -0.025322404962208944 0.055763432129790236 0.027031956114768538 0.048393580325451296 0.04974146537581142 -0.028590387892451025 0.05371798119623067 0.0667622761442202 -0.06039525118658986 0.032110773261584125 0.003928101290104721 0.0464736079934413 -0.023738879473586806 -0.03373046280716623 0.019198176520461047 0.021050210155034346 -0.015120108712788335 -0.022944752093273624 0.00183969961371791 0.006008129255809763 0.026139310291992235 -0.01161275856674969 0.048513772621297635 0.06212555482827631 -0.03786227447102101 -0.048622711159431065 -0.0011254425866306789 -0.06363445494886673 0.030802368560077023 -0.07133189877014981 -0.08079623089811237 0.03954128387529282 -0.009594973791320627 0.052986865552552775 0.015418646821929546 -0.07682662587616784 -0.007567106736155876 0.050679227075654226 0.010939337760208362 0.07016323292929116 -0.06668323733791025 0.048756899399091114 0.05266939539842794 0.07952509117696221 -0.043399416361893074 -0.07709700024364513 -0.06385309626569946 0.033129190555404295 -0.008395507250245793 0.040518238946632756 0.010891298098314128 0.07135573435846174 0.02683682103081951 0.00736637880422665 0.07033913071016354 -0.06325187175536656 -0.022464290585268755 0.056337719822969534 0.07405811521184 0.0014219153501840998 0.034488729651187 0.06467481977834455 -0.020038774440889848 0.021789620947548716 0.029068300446278353 0.027072099933512866 -0.06133255579246567 0.05634349275887196 -0.0005973343014981231 0.05320054259170762 0.07438798945038896 -0.04772222667746339 0.005955960942326366 -0.014023551163763387 -0.031065331599477018 0.052256857253191874 -0.07855565598501846 -0.046446115653393405 -0.006785232813036557 0.0137752334120443 0.0011258765652854968 0.004702727656378011 0.06060933108182234 0.014629776890949492 0.038405550706726146 -0.021669472465039155 0.0554777218102559 -0.06082107882335415 0.02067162311554971 0.027909980747199165 -0.05549337714643004 0.007802169367154027 -0.0719167703302307 0.03158465515950469 -0.0691677289530437 0.066448686869711 -0.031988769133181445 -0.0690710184905849 -0.043574545067624496 0.0253599072144466 0.02340220955988255 0.04024224483885129 0.04821800661219061 -0.038373736936407256 -0.06778958633676296 -0.03729724642440926 0.0023532215325535455 -0.058658344044108066 0.0250532501918391 0.021904553452314623 0.06426035414845113 0.022672831341628702 -0.03063614325316099 -0.048211244703520714 -0.03661432454470669 0.008943008829041948 0.05161757179503715 0.05126321353079191 0.06915871602088638 0.06193261902275318 0.02592024814050571 0.033186888036449105 0.08036912602704072 -0.03993913639436204 -0.015021926650995374 -0.03709447981259551 -0.012138696807527619 0.05830800452040888 0.003951053586439102 -0.023992253435450805 0.020493589736670217 -0.0498935343669931 -0.06899717828776439 -0.0739401429679844 -0.06570918331378704 -0.0030608715839945816 -0.031636964959849787 0.031966693254663114 0.03248673890380506 -0.05856272823520664 0.011065178275027801 -0.05537579340600729 0.058628187777643725 -0.06806204130895566 0.009390249101054002 0.06027533196869603 -0.02734830298558661 -0.04127104672443096 -0.028935173244770733 0.06691337852254423 0.049875798123942605 -0.0522660322946953 -0.07741305341402632 0.011137384542547354 -0.06715863153135555 0.0807375893152002 0.06794249299361974 0.007353585914208732 0.07813581309897788 0.019031420921089504 0.0040927428959766365 -0.016586663394461243 0.03704798464636301 0.006230629696670223 -0.01074006737712943 -0.03543999696317275 -0.06782479579176279 -0.06840030142016433 0.0411844774630918 0.0186752739396001 0.05549355111559315 -0.02147773971331183 0.02360213797395576 0.040254565149153876 -0.07885127287769997 0.07500375636260154 0.06698602881556998 -0.04390524820918119 -0.02822885557200923 -0.013593831920669958 -0.0603980295564636 0.04345964368543577 -0.028391411209808995 0.025067722114678767 -0.0406494964517634 -0.002950618041435857 0.043044267644620146 -0.0007501335401395443 -0.04643440910750694 0.004410439217567549 0.0020078065523682076 -0.05506431397028477 -0.007206725120126448 0.03279108318655247 0.028861422179428498 -0.061520788991687794 0.05460600033064297 -0.06180669866190448 -0.04751695280968228 -0.0619129518957347 0.0723759739093908 0.006275891744093057 0.021907214054960697 0.03433879066803497 -0.04161541222411994 -0.006340076091809116 -0.04341879046833678 -0.051150837836388095 -0.07935866954097326 0.010383962547091632 -0.03929558714313623 -0.05428601778381473 0.013903527700344115 0.014288888432775426 0.006044065785579422 0.04818585525255781 0.05537744229827493 -0.03969166038749077 -0.06685456093088255 0.04966451336851621 -0.018857975856134197 -0.02901265358047532 -0.0802419323599769 -0.030788126052933587 -0.010659793790124647 -0.02433755570960429 -0.026918089860431343 0.03402689832938341 0.05951477406486283 -0.030938528928673853 -0.05868784046661246 0.0013117332686884836 -0.021430662056320875 0.012313490416772918 -0.0011420698990192019 -0.015828775611343854 -0.0506043014351851 -0.008422900481504264 0.01850654462494683 -0.0015654559242810617 -0.007337445987421767 0.04171319603778961 0.05600854395390081 0.07059818061426718 0.0022424721438868422 0.027996250415963028 0.03591230035232894 0.07043608546974503 -0.03745655451193055 -0.03338131432636534 0.05301625077983005 -0.02707372291547961 0.0793434774175252 -0.060796167919785205 0.02715331633820102 0.0374825405041358 0.007951674145030535 -0.07791073205258106 -0.036545897177484424 -0.01307369086421016 0.012501294245294586 0.03225306840381298 0.0424677122335613 0.08083721328901464 -0.00423019386950256 -0.011569438658789982 0.007851126918453799 -0.07871104232565652 0.04443851120892617 0.0737297456592485 -0.004008422089756894 -0.005512511808129811 0.05140099521947031 -0.03502834709556982 0.004172962245092102 0.0018824769161636667 -0.048845510210843754 -0.013836295681813576 -0.02057070037846067 -0.042402387152744005 0.076540461182115 0.01578239594613194 -0.004203809931334984 0.052407781809800796 -0.07155991583889254 -0.043612321002136564 0.0687819448931308 0.0700231444684313 0.057776396531690644 0.07845237102921485 0.04809787980972871 0.03365793806201242 -0.0018781075178429252 -0.04415651346536205 -0.05142345144307602 -0.05134157088863447 0.030470353209083784 -0.017411435257782937 0.02476745745790747 -0.0052749997094447 0.042914515354228605 -0.02939306816488535 -0.02418948800917417 0.006831325954133979 0.022359951616554644 -0.0464110761639242 -0.007273418838936466 -0.0771815380769624 -0.01678344215840162 -0.03219709573297282 -0.04748157218050808 0.03676680402152985 -0.023116087999304362 0.0416989938691321 -0.04211434566153202 -0.021640419539259305 -0.06637104616208576 -0.07714649299751575 -0.013060297353777187 -0.038237952456023926 -0.019327749402792492 -0.06365556678289541 0.06728692476209208 -0.020198370336709653 0.014752770369820811 0.06978064051988223 0.03663713248365043 0.0003089094435893003 -0.015905465494020735 -0.023153491520453796 -0.02013720004440312 -0.07738828807649181 -0.017512086956505815 0.07679167061406159 0.08022348535884752 0.0799422917410938 -0.011805277465711264 -0.04712927404957435 0.00135211821186558 0.07242133997571837 -0.027395897715491814 0.06713376262815773 -0.05563243614495603 -0.039192756259690195 0.04912690718291232 0.07458697172300843 -0.07216115492849094 -0.016539896887701647 -0.07273719772350946 0.07856703657478734 -0.07837030396593105 0.06894477799021675 -0.0621294634311585 0.057005630271468155 -0.02210843216748022 0.011143684447134927 -0.025410000513192053 0.07033501882850673 0.0702481790575831 -0.042910598895161876 0.07743932834763359 0.04958236925419185 -0.08001032086019277 -0.03449067058200637 -0.023135802490050705 -0.009031873229366258 -0.019687691223568934 0.07072810166154556 0.026491187890433116 0.0044417452064211965 -0.03589248380672398 -0.06563717707681195 0.03175526149793781 0.06914160759273585 -0.020349477474068532 0.006121104513065356 0.024867451729957954 0.07876236942307374 0.010806610242088524 0.03170855096649296 -0.020042942297861417 0.02981656160836256 0.048340967382139804 0.0735840821779041 -0.07668828594514669 -0.03755484165019155 0.015600206872258868 0.04479117404811847 0.028092363808397844 -0.006571789419831137 0.010715760417745954 0.001617817469687699 0.039568030028891185 0.051050250195785185 0.008597266230853828 -0.0469225604604386 0.05356873197097195 -0.02408559185732248 0.03153041371978922 -0.027029204032896846 0.04754438698374858 -0.07819720600835939 -0.06835263560689721 0.021406763391912026 0.024706622639788248 -0.06375855320368704 -0.04369436668753363 -0.06290080183312716 -0.04492302635706602 -0.047361225480419704 -0.05812781930237161 -0.019353682441292416 0.07614701832431223 0.046984319060101754 -0.0708371899204264 -0.04321154817309047 -0.07413317674919338 -0.08012313272391827 0.04603362260567814 0.05361478364047992 0.07731709608771872 0.05241148433891965 0.017053305798344465 -0.0332778675633766 -0.08108264215549496 -0.07217677672480037 0.039067115322173815 -0.06703933620026942 -0.008274671578210893 -0.014825961606475327 -0.024068517271197618 0.07954816025850123 -0.043420060299701045 -0.060783504052490084 0.07122289859118394 -0.07124789968979446 0.05375748526471777 -0.029500611474863034 -0.030021417209857876 -0.020550496915767817 0.04787890271654774 0.015391585816628237 0.05937969739648921 0.06802125237659734 -0.048133568869685804 -0.07100345949392063 -0.027222440564098796 -0.001237875993774673 -0.07066251506043182 -0.03160926669711904 0.05140924224917656 0.06624881193812474 -0.06185870093794953 -0.010819896712007324 -0.04068266209014266 -0.015673934746748705 -0.07892396811716604 0.04723617171715641 -0.0786225730007656 0.00856723724968686 -0.029058067539312407 -0.01250120057540216 0.07771939785113796 0.009105198247778432 -0.021803111073943324 0.06282160114409183 0.017796316234176504 -0.043752929028738445 -0.027194402294766586 0.002525535684638258 -0.01042042778297185 0.009090058171552867 0.019662985713901224 0.033629486134348824 0.007162841757547694 -0.06154086637772706 0.06807601912311276 -0.023348020620630988 -0.025532198175678922 -0.03230202489754945 0.07467732169761054 -0.08104714088856414 -0.03168028169511959 0.004869749988322264 -0.01085236972196428 0.047501852467620787 0.06749315776424747 -0.0012151831026101095 -0.07787948959306575 0.06183584155610519 0.006545890752138517 0.01462616606767693 -0.07757506153619681 -0.033151268624589454 -0.012301707801868955 0.003825501408699833 0.0074820157216916455 0.07063298608008578 0.009590724879676021 -0.027160737410968736 0.036232841896902304 0.04035967062464092 0.019504738740072594 0.03881322647806243 0.06841381360430779 0.03250154834041839 0.032316205310619045 -0.05876496213727733 -0.011550730741686041 0.019293383732226888 -0.0727765192867868 -0.06911537314869498 0.011106273069800943 0.0032911586368239293 0.012175770973248845 0.009639123584311154 0.03607435364756044 -0.0003114884627807013 -0.04183368256285452 -0.07089350871662711 -0.04472074652653195 0.04493079008034345 -0.048920263468494714 0.0038514911779168742 0.01564345320402888 -0.07760786737643281 0.04104391959520652 -0.043897278261059935 -0.06554731826482321 -0.0007940826982636984 0.07698303616470253 0.06546129712343524 -0.07442329385946521 -0.05497158727324282 -0.06258526581120044 0.056064273989503505 0.06260371553177832 -0.028745607062547196 0.011866762458640254 -0.005276608414306896 0.0015866445071893442 0.06369318106130281 0.02174189666613907 -0.06973639607497623 0.03166054401352085 0.06278825103645666 0.02832050332786286 -0.04796077035360897 -0.039298975727035 -0.04229703919309995 -0.06770601028172826 -0.006605062325345273 0.04871130172640048 0.003927122213108147 0.014747104398892319 -0.07750055416201346 0.009443611025803711 0.030726980991065828 -0.040467715068543096 0.057426256585294516 -0.03150032838560632 -0.01858536980346985 0.04250396580570073 0.052366567661455005 0.04730165475260681 0.07943090322959842 -0.019101011305782574 0.02294136962813395 0.02785702243392947 0.06767503047561291 -0.060561865903421594 0.07306223481859742 -0.014534364587443394 -0.030389364104965233 -0.002457977483369414 -0.017570666067642973 -0.06235734354545368 0.03514572430898781 -0.02130633506566649 -0.07846260015916902 0.04529133085964979 0.04871633882486573 0.0018764408736198501 0.05996406585859948 0.06328485519069701 0.04254991171887852 -0.0749729039173238 -0.06518870194856484 0.06315567987662671 -0.0030047510809129013 -0.012910407396238194 -0.012725857387834563 -0.010498491818078673 -0.0779905134194092 0.007502297217448106 -0.03020649796395844 0.07280633720853488 0.010567435578353074 -0.06363139534269499 0.038417006459029665 -0.015271354164319018 -0.013016244478909242 -0.07474941238856928 0.04393179992221252 0.05632644491399058 -0.06354388658744285 -0.04592839060029609 0.07862914741857016 0.011949976524864875 -0.04561586470568665 -0.05816834814969795 0.0633645793735666 -0.0007354315217415613 -0.07155622124149844 0.05217845185175937 -0.028219311440913566 0.017020115684928797 0.036400358790770526 0.012659723422172031 -0.06365091305112701 -0.07451304472445695 0.028211430705810836 0.078685140485274 0.0486630042456814 0.034488716053944546 -0.01571876168241318 0.027702039100449563 0.07196556282611519 0.0739735365867954 -0.030467753718488477 -0.04983653721947465 0.013895159277478863 -0.051295922150744425 -0.022615904899770986 0.033899615675921785 -0.007002645996715198 -0.08021369647738777 0.016626815824792446 0.02626434433925398 0.02254185665914099 0.04574618732485869 -0.049156990326428396 -0.04935391458086298 -0.070370357835011 -0.06747583419750533 0.0789157780447976 0.003950739490138536 0.03312878505541837 -0.07713213438502983 -0.04260136753685759 0.07609595992351384 0.04065988640687963 0.07007170875726337 0.022155436474902188 0.06255274113172218 0.03259810522957776 -0.026799020772351516 -0.05882465750647932 -0.04901899576536545 0.01998414132505162 0.03650590595001647 0.04040640887935232 0.0418879584489175 -0.002345872978412211 -0.06980060882582095 0.058955702668007065 -0.04008690616410205 0.061687777708227115 0.006389417765208072 -0.04671463883185149 0.06009700783544886 0.0791634404849709 -0.012653026251484234 -0.07326200044346243 -0.007576187730065687 -0.060687818293330295 0.03101484269651654 0.02404256512101803 
-0.024348622278612828 0.03628097394450494 -0.04906911081969881 0.03600529181789745 0.030383425584865856 -0.06960987977720708 0.0732569758091361 0.054036855794420025 -0.0353664358059834 0.029180454656710736 -0.005248595299873204 -0.013600932551757303 0.0662564943045682 0.01737850598480159 0.022147389551280622 -0.001963587262360733 -0.05781041947620632 0.012625111565977842 -0.06543876090271977 0.02365435810804095 0.001079807748144021 -0.0394686983957894 0.01161417932750515 -0.008533110663967627 -0.06296768372266462 0.0014785170445680146 -0.05777997751657007 0.04282514710053131 0.00882690431751719 0.08049114141093855 0.07005834659602825 -0.04817168851227089 -0.04099704483928899 0.07260561917237654 -0.05820029124490057 -0.04988582004702989 0.06938780810272516 -0.0071644894411715815 0.07409534672787246 0.052052115264211246 0.00857613641824903 -0.05905745664985113 -0.041259162356829346 -0.07668561325606287 -0.032064648544668124 -0.0010013036156232558 0.006461801627822075 -0.043080152127167315 0.06608743858055594 0.056392217721785626 -0.03793314450730901 -0.07802376864850814 -0.07710049526373618 -0.05751596658301868 0.03142311349829044 0.06697195604733641 0.060683185561747455 0.0037888710418640947 0.01076360080449805 0.06951519968520686 0.05811407996873899 0.0725662358171863 0.06323913733349118 0.06548544688358796 -0.018786003687805468 0.045902566415275986 0.05543826971345106 -0.03939762757355457 0.016907178046710644 0.02216970829165714 -0.036762139411967494 -0.04039410027778629 -0.033149343179518447 -0.030487392517918516 0.04414354622847985 -0.023954914803363946 0.015906749149248153 -0.04454163435754462 0.04105424760732937 0.046762562539483715 0.05297947205197112 -0.061028967969639844 0.00792405482184623 0.06295788237706595 -0.06808857897150315 -0.008177148000653653 0.07559861555050262 -0.03141204594725883 0.05904136144288377 -0.049393652295299496 -0.03613628583868553 0.03575929473776322 -0.009302138290122303 0.01514363541707596 -0.06203845527448164 -0.06545102553986853 -0.05724245963750185 -0.003154014507735947 -0.03992316560216309 -0.06199834998125758 -0.024442326315225915 0.03055139904391943 0.0318196900672363 0.05975399465706166 -0.02814389728173934 -0.033271056251392477 -0.06179988440385116 -0.021630347155294494 0.03777082251545866 -0.06686521958261762 -0.07087171830465999 -0.07418560038867388 0.06441381987859326 -0.06830569241152602 0.06227123213348387 0.04084773397319787 0.026808596932507187 -0.013633171462523422 0.06774295074123207 -0.013025202040073694 -0.07997263202357262 0.005538537610039335 0.0540012122096849 0.06682753852664175 -0.06419116027445591 0.06359312424193708 0.022114032191782845 -0.0451307383614987 -0.05818601640653619 -0.05923705084108328 -0.03223806943674795 0.011384183557825125 0.0023306585705945987 -0.07631853922838051 -0.0018683857916528268 0.0018747589702691608 0.029255966111708692 -0.07869582701135608 -0.02803260370121375 0.02260696977405656 -0.0222756468248649 0.03416882090716916 0.036593012906754235 0.07864056623169835 -0.027018285522750533 -0.04389514198319072 -0.052044058142657855 0.03287744138847272 -0.0015621231646165828 0.021920068963512243 0.007499675518023455 -0.05866360300424592 -0.008509492480454406 -0.017596908141247675 0.04192326157380975 0.05986616374892051 -0.02294717051392365 -0.05761616375614259 0.07074066951720093 0.05084067045902166 -0.05017176303049058 0.029854854313627915 0.061027824139388925 -0.08052315090600845 -0.053628699662724114 -0.012532772616966392 -0.0190514543427115 -0.06278092657965056 0.01797825368352403 -0.04117475981607445 -0.015231444142604578 -0.02704795750076299 0.05878219044778213 -0.07019928276941456 -0.005708264584587175 0.031686000544213166 0.011203166566251171 0.07061982107886619 -0.030579417370629393 -0.01184521369988753 0.07868559402884992 -0.07439254966334541 -0.029446362481124 -0.0094722389622168 0.007880333493073322 -0.00588659309916803 0.007750451877798048 0.008340371942919783 -0.009810549458762766 0.08063420373980246 0.07714823888344621 -0.00015560000619509184 -0.02626885265606841 0.06653315837870122 0.05511794043694035 -0.016010244862309717 -0.06435716568374547 0.07691538270719633 0.012865267044135265 0.03224607700390665 0.01465832921158651 0.017310572046399728 -0.02692123641341452 -0.0478597324176603 -0.028329854680276684 -0.0040800021287214355 -0.0042267017954807085 -0.024510416244214746 -0.039580140866119815 -0.016133604937945495 -0.06062612994608646 -0.047893480773418734 -0.03285095652855007 0.06698172687467982 -0.053590445634059486 -0.015830684210942275 0.06357517761932979 -0.033985639083516844 0.026533953333061855 0.002034333488202214 -0.032425031067180386 -0.010102254651412387 -0.05153660754365619 -0.08108725003434022 0.055939497458905696 -0.00991635708074183 -0.07757229343979513 -0.025933705784598915 0.05248372112469449 -0.05942519709349396 0.040296430983114126 -0.0180410966632725 -0.030803928843648055 0.009431498224528947 -0.07169623061173137 0.017004589220396993 0.010374938888220817 0.015294120027351393 -0.013815000964873952 -0.046422965894882554 -0.03809774653009735 0.028010366015510282 -0.01010205726477617 0.06647835952758557 -0.03331356976733472 0.060252160303516794 0.0006134348718222354 -0.05068883360298469 -0.03600353490309256 -0.03967484377127125 0.00603409553201345 0.06482976639926985 0.018162297194646446 0.04859869926020871 -0.007703083995221044 -0.059713721664514066 -0.05008683646711974 0.03888783484954107 -0.04527402738661035 0.07961167010745157 0.009164804252881437 0.031643662508238746 -0.07652343992739663 -0.01676679210840211 0.02919871507345763 -0.015266327490406323 -0.000998675042037156 -0.0037459219609220634 -0.0634057460826443 -0.011324424357123872 -0.013284573141260067 0.02468232806900343 0.030185325546660605 0.023206159305976484 -0.0764373225477482 -0.07955068942113695 0.010088342255099511 0.06205588950766927 -0.049690263373024735 -0.07178832375281544 0.03671582063218565 0.013917898097106807 0.011163209860671 -0.007515484880738457 0.0430581519399653 0.042039232379117095 -0.05658479833711987 0.04919238009597113 -0.06873777870790912 -0.06068409959860096 -0.04795209433090343 -0.06203562938979955 -0.04100358390426319 0.047976643547823244 -0.07687568948595873 -0.07628993803321091 0.05331658999481409 -0.03258434837061045 0.0042169201658835975 -0.02286180528840335 -0.04693473792415523 -0.027419529798408428 -0.06762695938898058 -0.061695142050277735 0.053068566019072116 -0.07351747555698597 0.024532795190159204 0.01062445062890742 -0.015479407232916464 -0.03964917550129791 0.013127050824913736 -0.021662533036815063 -0.004094880004788443 -0.023903826488632172 -0.06045721291394715 0.001518235345163918 0.059965896274053826 -0.026493453644266536 -0.0629312248321642 -0.07837613393471153 -0.013360160060953627 0.04127659356840756 0.033802095799836104 -0.06833246281354009 0.00966411433390936 0.06763488401296033 0.051556787286715006 0.03068163751126876 -0.06431403915878947 -0.043671104751772584 -0.07985195332414778 -0.018996052453893256 0.05467893911182933 0.0792885227269031 -0.0035709883756197963 -0.05418346209344781 -0.04616259856906609 -0.0060360437146954465 -0.07698208730380032 -0.04340070047036191 0.05596706269528115 0.02330133124045218 -0.00392900376930215 0.01014199720042401 0.07788643846381932 -0.004740685189617011 0.008167740975086005 0.08032670920260032 0.04096411858791707 0.06427287758644784 0.022328032240986076 0.059888911331215794 -0.02403629664116856 0.020445886455446136 -0.010115128747183816 0.05291901652137601 0.06100726072747237 0.06222171422471473 0.07268954414776055 0.059984101093187164 -0.06962812916507954 -0.07502223403306667 0.04236561915159859 -0.036704107514298666 0.02848006485287534 -0.009821197837025758 -0.05846846119721593 -0.010645302075743213 0.015706036627527037 -0.030236410990863424 0.05526533333644382 -0.03904739040687493 0.02034401583947794 -0.07405029558878805 -0.05559009599385502 -0.05071301614759978 0.06780352358581343 0.03223813606323596 -0.057700697736907836 -0.010818154754169126 0.07472805376459016 -0.057511608817894244 -0.00013818261848004554 0.008175421981805223 -0.04314114746828767 0.013816917722817845 -0.07043401672484664 0.06579278172873154 -0.032759557677773506 0.059104078043817704 -0.011299152748928856 -0.05511670127491183 0.0024824566744905963 -0.01625904947084872 0.012485448018944523 -0.024222445685284193 -0.059668513175118426 -0.07094174538745639 -0.06918704534674723 0.026264926225690557 0.07071034872410295 0.059311723346222145 0.04134583503275134 -0.0018607404399249294 -0.04761421630220758 0.047987537054151486 -0.020546603496473012 0.06108524446330851 -0.051492519995819996 0.02251635427552552 -0.05120645410839562 0.07133878448926623 0.042086740766532765 -0.059047449381569604 0.07082310869168645 -0.025234752831589206 0.02243626432683403 -0.029185692238961856 -0.04295423629873277 -0.0070968040301456065 0.023617735068608092 -0.020808888335635732 0.040031675147297247 -0.041703822929787866 -0.00960963025895642 0.055428617408737696 -0.04628181209007682 0.004310005452425034 -0.027307300954223047 0.013276018511713505 0.041225461666959715 0.029101069271798813 -0.013627849275208173 -0.043972700654119866 -0.017074960086806645 -0.0232883241938657 0.043423344260373184 0.013762929720593592 -0.025890455147035467 -0.022827830009776492 0.06277819066338935 0.038452010595668495 0.06721570618315598 -0.04473546924295456 -0.059534134951765266 -0.03843583070809678 0.025741911845280574 0.020927073074174712 -0.023149990910385304 -0.022262998896559548 0.009233703746577629 -0.046816408752685335 -0.006895823416127531 -0.03862301397358113 0.05650003395863534 0.06390509861728474 -0.06982438148911643 0.03750383801606415 -0.015794925956129177 -0.03114813404695662 -0.062044421593387786 -0.0707194177826555 -0.060901710093375576 -0.014374768238382185 -0.009857966064791876 -0.023132155180844223 -0.023400849306856 0.06376267475449401 -0.04750136281581214 -0.009948139879564027 0.039549132581335564 -0.006722905546478086 -0.022225631634723297 -0.03516537209770591 0.007618755634977714 0.014630741539761016 0.0461091797625188 -0.03801432586132774 0.05563236611915742 0.060916422914027296 -0.015817064533043226 -0.06668457598642935 0.01796987521380744 -0.00033515280137801085 0.07970429338991064 0.03809806440340972 -0.05603477900226357 0.07837926288681976 0.05562556855549622 -0.035695992095679745 0.05479650102112393 0.04790214591833031 -0.07266993050322904 0.06816973245117486 0.015687645450631935 0.061029197838577465 0.02051368313723949 -0.07322047310529892 -0.04832647053102233 0.036039778050679455 -0.05808548776285748 0.03717249829694014 0.038541391993366814 -0.06632665350723706 -0.05497365337423295 -0.01445052557684777 -0.03834948904948818 0.07054235834403655 -0.059250021477276094 -0.04435689436544788 -0.059114361638281876 0.02419707814098969 -0.08043901441796414 0.0353757481040953 0.07224635169928534 -0.04274603011007729 -0.04486642632456731 -0.02688851880417395 0.0087706671803114 -0.004182451156275371 -0.012872163489965172 0.0070408467695135535 -0.05094797717698074 0.02961456067237915 -0.013598657808635811 0.06569776344309552 -0.07281608046369219 -0.05095125373470978 0.05146671900165231 0.07202567925659167 -0.0053944598693254076 -0.07116910261223916 0.06612762326656785 -0.053236214579571395 0.07211826779054231 -0.03771464460179775 -0.07289244756294137 -0.06530812109009748 -0.0463320517857993 0.040423291517737936 -0.028396113740569745 0.011726117795024 0.024598450230726585 0.017662499652476724 0.0180388798595119 -0.030267215694712128 -0.06845705502596247 0.071619776641211 0.05658983694638983 0.07260224796273201 -0.015584590212685476 -0.012251485102699536 0.029441659723742533 -0.012863865168438779 -0.06787396236289508 -0.039316784413171636 -0.04709162955507262 -0.06217457462473039 0.05470447941664322 0.007513598867670543 -0.06975472311821111 0.004636853700207194 0.024561705949215223 0.03596433450635349 0.009527006992916212 0.05289253981979883 -0.007089846547805159 -0.06619703371441917 -0.07792265131977162 -0.05454708453667472 0.002958624097789825 -0.061983579750026635 -0.046402510429962976 -0.0692548642373699 0.07702312974919007 0.0011929853776913996 0.06349301099401519 0.045739931309148135 -0.000844267778395677 0.03586436878851218 -0.035460978037053226 0.04963330497764726 0.0048826197027600216 0.07868755648863646 0.03614794781583287 0.02510739765950118 -0.060339318174373505 -0.015878815125441384 -0.056591804089671016 0.08071992438213232 0.04430087750356976 -0.039423949115487356 0.026243691638778655 -0.059817810217346404 -0.044360869217116905 -0.06351974604319889 0.059762610247578535 -0.06571791266789906 0.05403157606071729 0.04256712492133613 -0.03651896587476803 -0.036544860085586744 -0.038480745345975044 0.03560501377739604 -0.019524557249723677 0.05563846183848756 -0.05554670386942985 -0.050122908516072484 0.037507128775357515 0.06073922712528268 0.02442568638761801 -0.03614834107830059 0.02492939880250948 -0.0025259515336364807 -0.04424608341148899 -0.016084515115692796 0.05853496750070086 0.053903642552583786 0.06445009354443543 0.014817669177087323 0.028833085526164773 -0.027016447100031198 -0.05749120018792088 0.03426091941160998 -0.06676487200888419 0.06888372999755205 0.021308341489870306 -0.045376526044099225 -0.02780465847123529 0.036526473365565554 -0.06424733093625418 0.011462771691088128 -0.041871577775398953 0.07119543223697716 0.0007199789355603753 0.05290562535269033 -0.06186379582469517 -0.025999094168133827 0.03588812339769129 0.016233053582872595 -0.04284908111777054 -0.05105296609388391 0.07606720341761938 0.06576452847188818 0.051420199209302936 0.06515748819433914 -0.039126367496812205 -0.07941436679211358 0.021155500175317518 -0.01887322025342543 0.06977614912408062 0.06398083797717422 0.07226911031045508 -0.03991067706375532 0.03412664475392013 -0.016862983836061468 -0.07063562862861551 0.06895215615613054 -0.036693818103236325 0.024293517942783505 -0.056774401760679674 0.04987625083657593 0.04327054192458209 0.06524736883745605 0.010536683526048737 0.0013807329287373743 -0.037581325830252074 -0.03182480172391429 -0.008703700081387919 -0.021923424083086528 0.025260970732318436 0.04354452311169944 0.03720142408850309 -0.0563245408468063 0.05550383863814959 -0.0007808571137749576 -0.025732698580417837 -0.029184016152209308 0.05790596948956234 -0.04116182838526403 0.04626968433183537 0.013474464826359792 0.038294147895019545 0.07691640839251843 0.05339898777325036 -0.04339040358081622 0.031108417106084946 0.06364567471347352 0.0038193006884419123 0.07991531662504062 0.004964340036361384 0.01348745699151982 -0.0385924181384845 0.04478842861378754 0.04671648926546834 -0.04277762677775841 -0.06373391794643862 -0.051964850957162245 0.007846640583847986 0.01821106589535665 -0.06539536107319055 -0.07079106981146478 -0.0130106690807235 0.05252483095197458 0.04125735943802085 -0.07155332910802953 0.02131114916935556 0.004814900072007217 0.002544651367935191 -0.024990227728490313 0.03611357836825545 0.021800107292005863 -0.032819248061319924 0.00785441390073538 0.04758996977501276 -0.06697235482424137 0.06850208191663118 -0.06711965118332344 0.045892255248625724 0.06077222325137274 0.01905230953372132 0.05373254150114623 0.040102242116159106 0.04874275222372529 -0.03032928083665227 -0.014737792100780397 0.01670593931170676 -0.057438236435754214 0.07302708133891234 0.07983569056893736 -0.03127708342018154 0.04946526678061158 0.003749619051143946 0.06894788269390928 0.07153198793384485 0.07909556622335534 -0.0693752029301933 -0.07634283870928066 0.026995272718687235 -0.06719409684113412 -0.024741422137928237 0.06961986143734866 -0.07697817764335481 0.047806705664936944 -0.02287928673423839 -0.041951332778684784 0.007958654062821022 -0.06752037566661862 0.0060115608221027045 0.0772225903425828 -0.05748525366055651 -0.06306833058681241 0.03522314859383742 0.0792374850241293 -0.04253010506904446 0.028472991189652186 0.027541083404844624 0.0532818246408607 -0.06232580972724877 -0.03279506559224508 -0.01709102522876013 0.05344800681430209 -0.003860036440474182 0.0047088083432011985 0.06435202101598442 0.045721276194669036 0.018724753322848953 0.012165155077287243 0.02653858742436893 -0.07564367454577157 -0.04122849362540514 0.054208066530280014 0.010233477408034555 -0.022151969555778868 -0.015581222931133218 -0.00959850960313903 -0.01963532794073687 -0.005286410817468862 -0.013152758149189009 -0.01490787290579286 0.033178660269502974 -0.015164740074782246 -0.014503388860500788 -0.005809878514834041 
-0.01424391676201911 0.05769528316388417 -0.034809271724542026 -0.0525892697192049 -0.013301448074541644 -0.00006913529254233552 0.032319252754812816 -0.0077004614648538 0.07459409766007477 -0.013145086358378577 0.0738994023058368 -0.07696833316428149 -0.063592149168573 0.05038483061102275 -0.031112427763825758 0.08029312431591223 0.036833832005883416 0.06246788263010383 0.02222857022543724 -0.07475083262054308 0.0174475505912908 -0.03467606445038443 0.07546954569060157 -0.01944233540449665 0.0788950891605493 0.06093702590902744 0.04663335481865227 -0.06521751767800418 -0.052813001088208175 -0.044433405142225615 0.0287355979813 0.06315768237273828 0.0017827359305239293 0.027245396033123093 -0.05812408988092879 0.05882891593619366 -0.02235893023702601 -0.04350063007997051 -0.04950525627065411 -0.005798513033112324 -0.018856384827687193 -0.027307870149900007 0.018512012982618398 -0.060157212648001265 0.04317402461850631 0.005115036990239713 -0.023839740192142217 0.04058299536055475 0.029274410620010308 -0.04209580861644152 -0.06877849867203209 0.00958305777236021 0.023475644489337852 0.02899800413808147 -0.034840898608317475 0.0022352684003776047 -0.07648390231904482 0.07445972646196355 -0.07981764717928799 0.04622983013435522 -0.013740315693435229 0.020585603560506677 0.0021707463878073985 -0.010347286780574158 -0.07452217738788808 0.0006801866810735996 -0.07671138977519416 0.06343377861091856 -0.07697961396539885 -0.05218042556704107 0.06698125618347037 -0.03552505103846168 0.01999031318893947 0.07824827717545763 -0.03413800124635377 -0.03757275858548613 -0.048824422247529586 0.050073421125558626 0.008502501156088305 -0.010210609716764282 -0.055111282245014256 0.016337619247834417 0.04342160215145452 0.05607545258468177 0.009267831465400403 0.0593628559275321 -0.014822027848694602 0.054602600189088135 0.011624872652208448 -0.07232465716098588 -0.015824138876128505 0.031546594664924266 0.018552206884539083 -0.05761793441927039 0.07400380827874009 -0.0408553241805536 -0.04105516247512548 -0.03455507890652166 -0.05987742105702451 -0.07952806119241426 0.024306317555882404 0.054487325940295345 0.02149356826324672 0.07211377322205076 0.05738864986091072 0.021022037877323776 0.0467641433699989 -0.005610930613021856 -0.0075801230741913694 0.056742279937279094 -0.05230614861679379 0.03987518939406695 -0.07758749500577265 -0.030792248132522237 0.0625450709272567 0.07213245673965854 0.07237083037473327 0.002674724175547344 0.05659371352021206 -0.010185204628972572 0.06499741896340164 -0.025705306406722653 -0.03865959924289608 0.023607011301189723 0.028816703568462207 0.025873637624333118 0.0018135631453629064 0.010089868998805832 0.015330368387214549 0.04585918939889799 0.018002147211196848 0.009951828282658795 -0.049320357190820716 -0.07380217794315366 0.01645201292409816 0.014655803070560192 -0.00492098077193881 -0.02017073922924855 0.06252096875745253 -0.026570140731954697 -0.03337474950217073 -0.04763247611463259 0.07599799919461186 -0.006431311171354412 -0.026153961396271283 0.009271341442458128 0.011681528886642617 -0.0007422772045329734 -0.05973625705428694 0.023174876885676404 0.014293751033295901 -0.0003219099937155079 0.003117098598808779 0.056017236595458236 0.05599733695559386 -0.07283855814072487 -0.043819463433191104 -0.017144094888337444 -0.05633707591799933 0.03393142861529809 0.043266938806413566 0.016452642249802835 0.015260805348086853 -0.002906258397670225 -0.025417949612208217 0.07951697996859997 0.005875371899296752 -0.008488596313799016 -0.0674908275745929 -0.054082723598993965 -0.028413001364610953 -0.06642983210238862 -0.04767190547382646 0.044401519382061994 -0.059387181545353857 -0.006750714626734794 -0.015545900467940604 -0.020504799303345193 0.07107259905448629 0.037495293357828724 -0.05631341898234514 0.01642535318852957 -0.0685717773777923 -0.03323586401956643 -0.056825369362114596 -0.010804667347223018 -0.019265648077079388 0.06772205940915177 0.01858913578638681 0.06755233062163826 -0.028565325832870192 -0.062679251235192 0.0268730082786319 -0.04914932435221612 -0.05261595453413178 -0.03212021541336142 -0.0016123882418582897 -0.048775618042908545 0.01982371811256904 0.05507777727989566 0.004612796476843345 0.04740773945617091 0.05179017972309899 0.005149520956814646 -0.017559969645789986 0.047174561554056665 -0.024115419750381693 0.03428321284600748 0.03720882582297044 0.021941887703067806 -0.07077377857594357 -0.0034560837452009135 0.04331173930299549 -0.06624819424561638 -0.04281144259094744 -0.048925735376557374 0.03784667004896583 0.05149850912787737 -0.07026602793112519 0.056012899830519325 0.06392031400712542 -0.05893569455236404 0.07083146646337843 -0.033439675806083084 -0.014247027811091453 0.05955300973725014 -0.01299063852963045 -0.057610389309435434 0.04106704487868096 0.007191751081339237 0.0021769944717931755 -0.051482458111947974 0.05736667188253802 0.06263236514823908 -0.0729966454980352 -0.07183785065087264 0.04424790461103456 0.05522340148031746 0.043315162031080864 -0.0349764579032578 -0.07387455100351392 -0.07111597894139325 0.08068802260743868 -0.05535727063802137 -0.00803458340640359 -0.05553507800051524 -0.007635366706215549 0.027818065503370487 -0.011368455929645305 0.00858493270100999 -0.0701121168157526 -0.07648018974307459 0.05664853050098426 -0.030857480752090882 -0.020845597188776502 0.05871806547469141 -0.0250028381888387 0.04104800398021749 -0.02273801455788311 0.03702184221032939 0.07596629299358879 -0.042052682091485535 -0.027143564924698237 0.07908725861037993 -0.02776648496846206 0.06901861403832432 0.027137052072185863 0.02558551643817232 0.07941378921147044 0.05662698257317414 0.08044773244104078 -0.026525555373964393 -0.0326305999195824 -0.046088614084395144 0.04160568256620509 0.04634983939621015 -0.016486699414045333 -0.05080383953285981 0.013787619366811804 -0.037029455986238705 0.019177779448143778 -0.07479148459845382 0.0030183516471322946 -0.039730972130537445 0.07784489103195308 -0.07558440960483333 -0.003589860139495235 0.0038487202109862284 -0.07703957689811614 0.0551411843941253 0.08064057246154485 -0.022170193335511394 0.03080652463277181 0.05644719016436317 0.027824565211881813 0.05814464075316622 -0.009395179385625771 -0.04357457158224727 -0.0340747239102493 0.06783036960360359 -0.016025018643931743 -0.06699355942167964 -0.06135466989434332 -0.06159449224006075 0.025927782372546712 0.0008238279503049034 -0.028056853325558254 0.07587805829667035 0.003974883055991932 0.06656201444662649 0.07432997590899743 0.024379227405158466 0.06417699640469798 0.0029974934016752663 0.003656803216623719 0.06594149507155728 0.0007343054434460761 -0.04028140678561034 0.011982361832608035 -0.06834186334264745 -0.044295040887248525 0.07406955872662532 -0.032089905422517155 0.07385006403174846 -0.050094445181833265 -0.03747459571091307 0.014642358948169204 -0.0010800765203031054 0.06491517679785119 0.07602891713327406 0.0009182956231619799 -0.07837357493368263 -0.06721315405628853 -0.053810632806278194 0.03197654846044992 0.07823741947520116 0.002273635059533846 -0.05192590422453509 0.02659494089353792 0.065980588050081 -0.00625511893464277 -0.015721672852021515 -0.02153738802094691 0.008435637547287905 -0.06841467015504184 -0.06843125780880657 -0.05651333455457827 0.07431570190157566 -0.022640248722789566 -0.04079262684237981 -0.00870395586062643 -0.012939578693567585 0.0725574875780153 0.044723037661884596 -0.04634821074872569 -0.0806689628994565 -0.005822154936259594 0.04066529508776491 0.01913350274755707 0.02985160019134893 0.02086368643134902 -0.05744901406336071 0.060154117915619865 0.036686631507360595 0.05507997315901092 -0.0728972959618975 0.03944416609988244 -0.022286558838550935 -0.0054126455767790765 -0.02678931664703637 0.030943329359580232 -0.016491821721896588 0.009814658167729667 -0.06751118106019412 -0.06885942976124954 0.051182396960572 -0.0484908858183477 0.024077725021623142 -0.008656632320167848 0.07771052844542872 -0.048081989845582096 0.025022810422869676 -0.02418254661690395 0.005735096476353216 -0.016112180291800254 0.05086585602688806 0.02293463211896024 0.01594722353206446 -0.045529760243418545 0.062228126079931806 0.040941553057590105 -0.029856419885015452 0.04407823066573227 0.018694970753931242 0.06660133079762756 -0.014285620788794237 -0.052204085146603525 -0.07534157252384426 0.04053509522147608 0.047892198477915565 -0.025686148571974134 0.0662135663748922 -0.03247742199773877 0.053851968649943904 0.06355080320251572 0.03487940252408221 0.051138763334012904 -0.020572456009081544 0.002876356097478716 -0.08055287674420905 -0.013449922559141694 -0.05967901878233571 -0.014797489811729708 -0.009373443664789385 -0.0791672738497782 0.0007913639296360103 -0.0777840337783838 -0.011306269621166903 -0.0064632418024181265 -0.011636437409072276 0.0626690721884142 0.016560195531091657 -0.006470063690035263 -0.02134912687183753 0.03122978412813865 -0.06928999558376588 -0.06184089731300869 -0.07560370907752403 -0.026641445804460824 0.04353212741224152 0.02855611800690444 0.06615489049671294 -0.051616027072754714 0.029494202263554217 -0.023981045455120795 -0.050163617149160095 -0.04152629091145359 -0.015764659476460746 0.04660913148230983 -0.0403697823650686 0.00010099816401450135 0.042359627224552485 -0.07441803595689066 -0.052896122013322014 -0.06983951642860595 0.0696867181719876 0.019890711423954363 0.0005466836668927416 -0.006673547480847961 0.0534981226240378 0.0026097255040890693 0.04422822600190024 0.018371637317781936 -0.05122858475358491 0.028624791333134558 0.06721532614022951 0.07669667854088741 -0.07161619248364166 0.07432144620772871 -0.05748346297926622 -0.038097263979070886 -0.04250125632852206 0.07285530782829544 -0.012687604265652769 -0.04078549833694545 -0.035440206209626 0.028827886091732743 -0.07273092297382042 -0.06085674235071152 0.015769772719483696 0.026187748504170688 0.011236393921003104 0.055304340048018236 -0.018956275836235284 -0.037933801405199766 -0.007329258256800628 0.08077865140105123 0.04497075313130344 0.05591728575904334 0.048526773926826194 0.014046897477967862 -0.07144086601357284 0.020014251436431887 0.0008440907120828844 -0.037785280992136336 -0.04026468942926069 0.049550705733402034 -0.061555798113982194 -0.014099660897429103 0.07393558237732678 0.058405848539646504 0.06395683552048131 0.022381372863389287 0.044982514443860894 -0.0056208131643740306 -0.05639472784828195 -0.07751326493979503 -0.052429553336708956 -0.06894604087187933 0.013833833749987715 0.042273134787633185 -0.06620481118601952 0.01233055820427656 0.0066788859093138975 -0.008349225107478334 -0.052733510928989154 -0.0798823096211566 0.06795206431920031 0.036533275235020174 0.07945257436353317 0.05010103810699562 0.041244189979927334 -0.0010877229295942897 -0.07930454654834758 0.010541633979863477 -0.06594557628387836 -0.010789673592434254 0.04386759918226529 0.03567355830752407 -0.04096129383633852 -0.07580903068673418 0.0797945918460719 -0.04467535893123716 -0.07774639034144538 0.05590118133616723 -0.07093581457246106 0.014558410781932818 -0.07973908525848682 -0.04841067236137063 0.02933916952676008 -0.0306033956544468 0.009090562024925836 -0.06549059072040642 -0.07716946553863334 -0.05868662562853988 -0.004179813895562157 -0.0077665258579591445 -0.03477352132591344 -0.05677522832194011 -0.06424553602471067 0.0001615267420176647 0.06742686614611276 -0.06254957259653038 0.052641166541080725 -0.0020564968423136126 -0.013064169470725473 -0.06608624829305998 0.01602146084990473 -0.01347572725478094 -0.07309523011374489 0.04240051904271197 0.02424403939047723 -0.0698167126443752 -0.04251415588135296 -0.012857843025298354 0.05836935754454586 0.0801655245445406 -0.06252619931446171 -0.05579933700820109 0.07993639794081403 0.033175448600836516 0.0731104527554482 -0.06117843059606476 -0.028860439098799442 0.04798048121842399 0.060936947649343126 -0.012325276808688654 0.04373104524903984 -0.048811297282634974 0.033775152637302686 0.0075849341562710115 -0.05813220856777439 -0.03344561832981495 -0.04104807370385516 0.05345804618718386 0.009646775356959084 -0.06557399771639334 0.05896191766536957 0.06922590619012625 0.028562143171654286 -0.04208098225881536 0.039232609852848474 0.03895862791032875 0.04451366022187264 0.07797794730117924 0.01763009274022613 0.046410467611784356 -0.025964402314829903 0.06725299087951445 -0.03295924579835656 -0.005402239607132847 -0.0483886304004182 0.027162781831911176 0.07900311086684048 -0.046331975036919694 0.05440009827026074 -0.041917130048407844 -0.00472508371363102 0.07755157962726902 0.06846905111757287 -0.039639917365535085 -0.03580454764481753 -0.0778951711417017 0.04173660263310229 0.047199462259693764 -0.07792891262329868 -0.0014493278442027219 0.016619767618628767 -0.07064744191285521 0.04310827024252881 0.041618294763978894 0.012033801787137574 0.023753667607853635 0.05589341376033774 0.07061621607219176 -0.054490714448653874 -0.009502724508569121 0.05883673057359004 0.02061222492163546 0.0784099234598985 -0.05638260598217889 -0.029641946500694523 -0.03358145251567347 0.05280226304368524 -0.008823631687880432 0.021788861314937236 -0.03901569893619785 0.022946147245889115 0.005695426143807067 0.07765422664578106 0.0509007886269236 0.0033000497225808695 -0.015144249408112778 0.029087485777672714 -0.022714048964825324 -0.037318420050350846 -0.016483226376162924 0.01836987428421795 -0.06413936218366831 0.030905731548944257 -0.023019531110145 -0.017416232213838465 -0.04217404103073401 -0.059108684562938704 -0.065680288569261 0.03213593223928751 -0.06575993653203267 -0.007456267076907372 -0.024964781018028646 0.016589474624337575 -0.0456179173605148 0.06586179105793064 0.07675203654082863 -0.044217680358357964 0.06081600236842605 -0.05709475740073267 0.018327184910606684 0.01311374569655667 0.06497072954052036 0.06161349219571641 -0.0005920378734032838 0.0667625937153716 -0.0140580924653773 -0.041080433478998604 0.025269779177057375 -0.010959999827672928 -0.028103887093672196 0.015006638213746648 -0.04203419021945607 0.0407545830421915 -0.0576598543400395 0.02505851360885089 -0.05516845230413252 0.05747161396449496 -0.08048547906594135 0.0481299529096772 0.043169548406292085 0.07897252945992889 -0.010597495153315567 -0.020526185499510415 0.049928818304665445 -0.03675363395911446 0.049506696294169705 0.051522467922313936 -0.022581659715881504 -0.012566212768562651 0.06832013071896073 0.007631836862075789 0.07499072317909344 -0.022944712661270517 0.040315380402352 -0.035107377290292875 0.026628357929822016 -0.0607272327710977 0.036935784885168424 0.06123138520786289 -0.044539244340023265 0.06595890936212268 0.024076549691093893 -0.04355102372669361 -0.05484013117283219 0.0001165444200880994 0.008761268162008756 -0.013159781502615112 0.06035638581079669 -0.0641563482366368 0.023280183373731 0.014178267009268233 0.009345118191480553 0.038736340719554035 0.022831481322615477 0.0398074430976109 -0.05544179253234888 -0.05418165109183407 0.01603903838291973 -0.07760065207526749 -0.07813994159948658 0.022974883204839425 0.0177236506064829 -0.000983852159261847 0.0008069893518767579 -0.02543466628869573 -0.018920253341677254 -0.05196416036832631 -0.03308170233723161 0.05206395287240689 -0.05247970321509103 -0.03531671590262364 0.00921604561213099 -0.03026123351235644 -0.07754376521649334 -0.0344923957699122 0.03630889535309233 -0.036889297272959524 0.039715947781953184 -0.08077879084832658 -0.0623941743960753 0.07153173313662942 0.0362068871783547 -0.059773378206034844 -0.06707215065209232 -0.028254463938575565 0.05951764640678994 -0.0021820526459842143 0.07267514119315621 -0.0140307297523741 0.0456269256091775 -0.013738363809281687 -0.021525251877739272 0.07583164803766293 0.013860571291999205 0.008743378194578363 -0.004655232035262205 0.041248635220644855 -0.02374409809523874 -0.0018284297659347665 -0.021342466866945763 0.006671863840071832 0.02403887414955523 -0.012183015432945199 -0.030855313125023806 0.033812712451200044 -0.06274101421618883 -0.007442341385512988 -0.0474447831791771 0.05215561581184791 0.015837418169724907 0.002601527953237273 0.03722375136492624 -0.08030791426314472 0.0447519962379099 0.02378435016314101 0.030595816929206904 -0.0059181009315318195 0.03827152359438911 0.017429756559959902 0.07241020406077334 0.08001588001722781 0.0004059128510826432 -0.0016881781381655192 0.007813770761032221 0.05297231453908621 0.07538477202066804 -0.01851443238529149 
-0.030784062970269116 0.025141424003327473 -0.05245492088100347 0.03652578942427036 0.012379620227722474 -0.0529399095153415 -0.000009445739938496178 -0.02228179738640624 -0.022215504408547283 0.07960252747270932 0.009196358466950022 -0.07792817640816031 0.018302070803803375 -0.041230808555932086 -0.006199795834290492 -0.05407478809722025 0.04423287724084085 0.045683788597237124 -0.031917966176622854 0.07201549023850273 -0.013261942344169358 -0.0468520155493256 -0.026055072428951442 -0.04666728416881575 -0.05817724104842054 0.03670640990514647 0.06188497798668341 -0.027707215872810845 -0.012974865879470068 0.07935015026425707 -0.027451419184503376 0.03934443523663429 0.030739731654091912 0.07337567754504909 -0.02619948692803669 0.08064344095091996 -0.027006659880456627 0.07295583669859487 0.009358508000441967 -0.04109766632191754 0.050937802587076864 0.06540431591490653 0.07391048919516877 0.059284594581329286 0.02566365654229663 0.07911863575813574 -0.05590129940555582 -0.039991180141996555 0.0035846956801924013 0.016190296449669808 0.04473694620564547 -0.011596951017000354 -0.07321690284713298 0.0765528028703043 -0.042569035787141635 -0.0001322290658737485 0.038900947048135834 -0.036115163051322646 -0.08016058413757723 0.0182663710171328 0.009853492496485913 0.011239193895384289 0.03830988050885492 -0.004812883978653218 -0.0007215195786700879 -0.016706566144583657 -0.033415402084403356 -0.08005440500871835 0.04422554167962009 -0.009035764911235644 -0.06227564496744023 -0.028906968560299 0.07767145336994088 -0.07583291492295799 0.061974094918016115 -0.00535767018813231 0.045572240974898454 0.05402766239663931 0.07549001467722338 -0.05356567349790377 -0.004283364979616566 0.021433651787774455 0.021522996623998633 -0.065029576592874 -0.06946531366886852 -0.0012167062959253377 -0.0065573906199397625 0.042141283460708695 -0.05398826060963151 -0.05595195887836879 0.0700822079435606 0.018170556990652564 -0.037802695735943144 -0.07710148113935397 0.03278216029835626 0.0015318455805335002 0.05412329021643822 0.013553897499459344 -0.00538827040456262 -0.07316344581722636 0.039735456652177606 0.012339716626928093 0.07115384862133797 0.06922220781572036 -0.01746177066298421 0.05015700881378965 0.06111189437864645 0.06379604117882012 -0.05888610488037086 0.06674786216074141 0.023886860000584778 -0.015786614037360328 -0.02566936171860753 0.06406737883538466 -0.03538012868237096 0.007838558156315595 0.032171801387166826 0.05897569469357983 0.0005127089170475219 -0.019532126759054802 -0.07010627226770662 0.03434580533433393 0.030028389044843146 -0.0497377146520221 0.008773095496732317 -0.055649187872112975 -0.04565837822162889 0.06388369655767001 -0.07661305980561944 0.07302633356611787 -0.04069453656197338 -0.07884609482115468 0.05200038447977376 0.017436062205605396 -0.03935307280935978 -0.0010128094511031444 0.050019690186756866 0.001186057884824579 -0.008242234298785497 0.04983002459358299 0.016414178899144746 0.031851596978665964 -0.012092495039571077 0.0053444893990034215 -0.0713854156279232 -0.04082351645345358 -0.06486216288696792 0.07500452430463897 0.05802722259694043 0.0031441722948696987 -0.026784600141331993 0.05481326075554588 -0.03167140269580039 -0.05786202697897893 -0.03909074060646921 0.05133888943688328 -0.05577022485887635 -0.06306046820798697 0.03962717894002721 0.040734578628020046 0.01955383022421049 0.0452329100808469 -0.0807586434364887 -0.01872437531950888 -0.034348571315609006 -0.05762933374301775 0.044351926386298424 0.007957829238986025 -0.048802353318712965 -0.04139520918845171 -0.06850241119651915 -0.005631033984902251 0.04330961390292026 -0.08032515768169667 0.07999008793680795 -0.04296561379135197 0.0454637092964752 -0.016836861569270792 -0.0108822585759938 -0.06143705943889388 -0.04896962327155027 -0.04249065108373372 -0.017833889569776093 0.03368716110440337 0.07458396922525498 -0.0016770246223455354 0.01888669980418703 0.005630986621174394 0.004255741048477882 -0.020006829306100857 -0.04756664786030445 -0.03199391908875901 -0.020512809967653554 -0.04942988078808063 -0.07207445332065862 -0.04254418418265782 -0.05586223951365538 -0.05875404204078606 0.025351367013085088 0.034469389311228726 0.04152553029681903 0.07841666905187744 -0.04715217580949097 0.03535652024354817 0.07245478941876363 0.08076002959981615 0.0019497748813200877 -0.036080494766572296 0.060594921328596785 0.06263957652131216 0.01530959104535011 -0.016408341905122317 -0.06707124175197483 -0.05816596070054461 0.01180013884116908 0.02525039003810675 -0.02702944190909947 0.0217878829178028 0.030610329266072725 0.08035242672480744 0.054471773943163826 0.046382414007784284 -0.08073978345689004 0.05904947197138388 -0.037799551147006095 -0.05369122272957384 0.03379475208026986 -0.04151102823342528 -0.056937644814625474 0.06170655882381956 0.007211903478832674 0.03206539442895669 0.06305702357323323 0.004613793381335565 -0.03896590825163713 -0.07960895269854812 -0.05334190118609267 -0.051915323454783155 0.018307286554926347 0.003623112346984758 0.06965390704393506 -0.06335048741811317 0.0596153945654683 0.04260181209114544 0.017623665701421654 0.0316446717257894 -0.039627346714890974 -0.00934939966096679 0.07217069921066707 -0.03170590970214725 -0.02011823143794534 -0.00984965641223011 0.07709530104158041 0.0025201392412711743 0.08042771730015585 0.055760014991682344 -0.0000284493970656996 0.002151182297670584 -0.04422657076425277 0.027267133340304422 0.03462483457325072 -0.07950355971692351 0.007320060175525278 -0.030502373506407422 -0.044446833854408486 0.00472685233717246 0.01843401315671203 -0.01994586032852281 -0.050232575639780466 -0.016281558345998814 -0.017039628709866195 0.06897673166105239 0.04155086770055945 -0.03222475086222891 0.0006463199537656145 0.04442350657634345 0.011170201713818731 0.033788445603681785 -0.03559846564759353 0.0684651242339536 0.005245557751450344 -0.06952268368299103 0.007654640268605364 0.03265510351019976 0.00871897484585396 -0.06719574135206809 0.003411405925961966 0.03968407380606635 -0.0016570461184749752 0.062452535271471155 0.05660230002773811 -0.021441532220716257 -0.07904279668513499 0.0012302933404425148 -0.043117768520701316 -0.007052453149047316 0.018703775950440052 -0.003503405019452427 0.02013436947622642 -0.00763932614767647 -0.004436968797309801 0.05660891214012037 -0.011930510183793222 0.005798724319151932 -0.019318059554581914 0.006587728031889645 0.03638695817955538 0.014205814418148027 -0.001558463391271192 -0.02690240491248476 0.07422453261757578 -0.07418471143117866 -0.07259350161206693 -0.024373817289008712 -0.07462969486310511 -0.047069643191733755 0.06475351555644362 -0.02260370197899489 -0.019386190048677386 -0.054645150719745926 0.06056447438330495 0.04622094010616157 0.04506698210029908 0.04789295357811291 0.06967379739235044 0.03217931650752816 0.02536752416304583 -0.060637967327661385 -0.06120107801200735 0.034538094515438364 0.018373943561181744 -0.0061340836097645846 -0.04779959022796339 -0.07075413244911063 0.039614972846561194 -0.0004414478844988884 -0.07307080168566217 0.040532215249985154 0.035309638386848474 0.07341677732547783 0.018686065995391632 -0.06983203212866085 -0.07044357377332262 0.056137784459194595 0.029350821683676753 -0.016539207054268062 0.026064968124304658 0.07902298625828916 -0.07167939495937244 0.007778554280790481 0.05603590568488093 0.0469566429306601 0.0009290212790862284 0.009338824858893494 -0.05067348390260471 0.08045527445372605 -0.07056434916424933 -0.04040025695808673 -0.028377927428794206 -0.014660938220251538 -0.07572112723374985 -0.014102094123965361 0.060322098853156814 -0.044777318533603165 -0.03334688180269102 0.06876838579850089 0.057397021078764654 -0.07350890733019697 -0.04433934976797569 0.03170687971431552 0.023038691513261544 -0.04682085777041465 0.06552741076877433 0.04135902518886947 0.05726039054774007 -0.005250965979094191 0.050597500472213286 -0.029424425370018888 -0.051180270049692035 0.024191737446316655 0.04802425648292527 -0.04880306211274574 0.025277118213129002 -0.015003670313421216 -0.006341717958834842 -0.01765847947666621 -0.045308055543402295 0.01774908296429975 0.03882897140495625 -0.05226715905285291 -0.045023855348722386 -0.001757972179334391 0.056848411475789395 0.016718329345647015 0.025857358174730574 -0.05659724789676595 -0.021951481313017933 0.02475063109699753 0.037257126400839224 0.002482324252457202 0.015508819805759091 0.07908421448995656 0.020129029083714348 -0.032401111478126216 -0.07525700409673147 0.012129578194580368 -0.0753090563048724 -0.05894059756691068 -0.07162713531774392 -0.07178214169099575 -0.023468043253107675 -0.015321411581452449 0.01573660232206958 -0.047117605953667915 -0.07780041498068402 0.06407472754060647 -0.07598296238188867 -0.02958273897033551 0.07918346899647755 0.05981842171555543 0.0797080861140711 0.05436207056014264 0.04857987833491195 0.022864003886967132 -0.03296600642284244 -0.05664827426850434 -0.04798975385791209 -0.04052454104188717 0.04211061994156076 0.051416066025299606 0.05107807189126129 -0.028037780246954323 -0.07162925467460031 -0.06815322683410624 0.04206614321042958 0.04043670081608021 -0.014628843515795603 -0.07185510600478184 0.04857242221147484 -0.052533908093332346 -0.04016797745599718 -0.015490701329115314 0.06258675282074272 -0.07139835635018263 0.026590685107731826 0.051608060297323344 0.018928155983448394 -0.04488477210178069 0.03719884725997853 -0.04659281675541716 0.011309029710303578 0.016362038535548587 0.012745389675532084 0.06859166334487396 0.07718186033160845 -0.04301509989768183 -0.030266304755008272 0.04346762239622437 0.03296328916501948 -0.061392319676661554 0.006717234740974493 -0.027912496916914352 -0.0776589105936438 -0.080988147288153 0.03829366458859071 -0.0372843029071611 -0.0629553146133697 0.029550811360881238 -0.05806023194257175 -0.06916614676280429 0.04834192659205436 -0.08064685831564858 -0.009048245442378394 0.08000303213391824 -0.006921618140455665 -0.07960202354379611 0.06787335146900794 0.017467845306588542 0.01474328735077593 -0.006864834771804593 -0.03500247871951176 0.04802674817760405 -0.07882858920244418 -0.044380928700120274 0.07743134450010894 -0.002489114488715513 -0.058428031458678996 0.038035727241080355 -0.07133273507610065 -0.07949723518621907 -0.028834669378289372 0.07450668453876119 -0.0014357564365143627 -0.00970578927769368 0.03723296561181204 -0.05707944509276944 0.07592506645664435 0.03240076693911062 0.034854151311750875 0.05133984245249851 -0.06998380492657784 0.05516752890028975 -0.05607930906480124 -0.060465729546755095 0.06541619831846202 -0.03231632315338695 0.03569595175719381 -0.041397792211275604 -0.08097474788558162 0.0007621136927601913 0.009409568969608359 0.04169586861849542 0.023578490707451757 0.021201477362152943 -0.02619602295498257 0.04214762672539163 -0.019032625334609525 0.06619403801528695 -0.05697578553293636 0.03199149069679785 0.06748322935997217 -0.036346092573857715 -0.04933994190344191 0.00831302396026258 -0.06349866903321891 0.04088622852197335 0.04687467233225745 -0.004035504850646118 -0.03038020311394568 -0.02373533369045728 0.011328932447317586 -0.0059214571842096525 0.03954302726839548 0.067437765091338 -0.006507338264002141 -0.056189966067759514 -0.06204741510185317 0.024074438719203686 -0.033605112624017566 -0.02415349376666434 -0.03725205213657795 0.045333422407834695 0.016511460672407108 -0.020433074604829043 0.07792885883865078 -0.06104736231922486 0.00472783141416902 0.050160516751261014 0.03381581435990384 0.06881477173355235 -0.027810362816603595 0.04447829651371124 -0.0035696336370304588 0.05010644399289216 -0.011799681445041149 -0.035849516596125355 0.018196249206880677 -0.047744211605537774 0.0028713149953809858 0.04562810048646532 0.007661480134798643 -0.0712341758419102 0.023898264461068172 0.004582051223160244 -0.009604762748320617 -0.048078559336852456 0.04461881306108753 0.0454106672846242 0.0476597660823887 -0.048534258226771314 0.04272545778441289 0.0010820092172367513 0.049453961202296864 -0.07365490046913055 -0.03654670772421485 0.025169023534969998 0.028521664860745727 0.004175820158834179 0.006616078660097002 0.012410943364209656 0.014149959438995288 0.017531772288721117 -0.004239433044666188 0.03410908776784927 0.010129074456740716 0.03169867121012952 -0.06675188165668981 -0.06198102588573377 0.07124913341292599 -0.06699842179557941 0.032869290219325734 0.0746040562049042 0.02715541273082571 -0.0009844276247783917 0.06270054240174053 0.001541632875648291 -0.056512713462759295 0.0731018904207976 0.020901410167558115 0.04833182149916743 0.05801542351426506 0.07568659779195294 0.03050424901938255 -0.0026425981974337875 -0.016068960096951843 -0.038611649700503195 0.015902105993112772 -0.07453315436617691 -0.02646269494442146 0.06997667634560326 -0.03292759587480918 0.057971077392201614 -0.02103882654365604 -0.019732661156899832 0.05647062523834476 -0.02529493422666851 -0.04797857556489476 0.05936463112307405 -0.045361113192082095 0.022237376177348403 0.03985676520608879 -0.0769569430564429 0.016113443400083527 0.08079330582910066 0.06291424829726544 -0.053664696624682436 -0.04941667930092713 -0.000032478184463100024 0.014108861924773647 0.040118956677520023 -0.07801599049704566 -0.06600117299096481 -0.007573982861662332 0.048333236669945406 0.014921270117697408 0.024040337892704877 0.012006420642316828 0.0371537298721073 -0.07109802839069372 -0.07070240385533999 0.04664211159386991 -0.035886239273129276 0.03085249494544577 -0.0744322051144651 -0.06038395474864369 0.08070738409866302 -0.05134811773425296 0.017517111288671186 0.025478265393367047 -0.06575157369914489 0.05391721267608815 0.08100069610766897 -0.01518742730042913 0.08028471834954978 0.07011133233040354 0.07730505112157574 0.02301515513982373 -0.008636423871819426 -0.00801100201098523 -0.05103250027995203 -0.05251796691290584 0.00454035890512168 -0.014227120088421863 0.02348811489808901 0.07200536399434979 -0.0176809451428014 0.07609711070346645 0.07459601902597307 0.009439722969865644 -0.0661260142595447 0.020202513718644816 -0.02373610465410414 -0.06967591108368912 -0.02433720565615146 0.013199776431554622 -0.06308879564534194 0.02407781015546892 0.011637170678141448 0.02934196308022123 0.004561520897866947 -0.017307881303199546 0.08103274707432834 0.06533684405612725 0.07482290926101795 -0.07871479070769853 -0.030491015125467875 0.06396896358088372 -0.06976466912336138 0.013242658659387951 0.004949010127523204 -0.000373710124089488 0.056189738313948495 -0.07013164139834609 0.011476008908773178 0.03955131780927758 0.004198689663070104 0.06668895339201511 -0.03478964825977985 -0.03535990142450382 0.07658719437563061 -0.031412787072512535 -0.025790257445129902 0.03470896328065075 0.021176621754036645 -0.008557137822317623 0.043909558761658224 0.0487310968941187 0.02336611953235368 -0.009757913626759818 0.00826983836284216 -0.07948732211661161 -0.044715729370688975 -0.06421571598783599 -0.07427534052695214 -0.019696469150052603 0.06053695983442775 -0.01896002512476013 0.02236899854181809 -0.05716636508742353 0.007552705745597646 0.012645798939421415 -0.0051854509901240325 -0.05664408624228981 -0.023284306661963426 -0.06031679887467088 -0.00042198917299104965 -0.013356089197644874 0.06540207765771897 -0.05588036826377123 0.05922632964203295 0.07497482694510726 0.05389558195617955 -0.0015981969509947375 0.04992097488643921 -0.044410736348396276 0.03405491212367921 -0.016541692403567038 -0.07942868272436626 -0.057448957181563134 0.05039490178634379 0.03704398101386415 0.037139298061132864 -0.030937187107464834 0.06656101595578931 0.032361996895095044 0.0045340809072025035 -0.052624975246933395 0.029073339659870204 -0.07422544778753282 0.07739583008917711 0.05233677768959419 0.043548309792641016 0.03575955195226621 -0.056663960651715396 -0.04980941117403029 -0.05138994700673907 0.07193856980702612 -0.03673791766197001 -0.03136204110612954 -0.07508620014504143 0.03186902373337025 -0.02320374859043052 -0.014650636420590515 -0.035499552582938465 -0.000009790052333397137 -0.05369015036038603 0.00427407058454056 0.00012616144751134706 0.01975907969249542 -0.019096079057164664 -0.018640955103980693 -0.02022111867440731 -0.006649015940343339 -0.04167834698525494 -0.05095323930980851 0.06381140696927032 -0.03114583482879873 0.01721672569198235 -0.05218176315799687 0.06768150941055939 -0.04177388702729982 0.028884163794045167 0.003044008434989795 -0.05005704347364949 
-0.029616591647159622 -0.03023634814138721 -0.02014780634675476 -0.01818636809079298 0.05157885666877304 -0.04729244534029611 0.04094063207103489 -0.035356679708986 0.04410900515348662 0.053887967651488566 0.08004946286432957 0.024921446455263188 -0.008944203271250867 -0.008893589122579384 -0.008428932595955826 -0.08017397704368832 -0.07522307353792422 -0.07406956106837263 -0.03987914921322905 0.031839778406609745 -0.03315134680873354 0.012099462417682422 0.03500304746194731 0.012106194412418933 -0.03616010382612252 -0.037375946508301755 -0.042169341219421744 0.035487056188346175 0.07328563290408022 -0.01088628132017233 -0.031773501518821023 -0.021891439893995612 0.06424563709754622 0.00577903898693663 -0.013006812600604004 0.020364792350399785 0.044587942637233674 0.07385737254956479 0.01055754909890863 -0.06717732358500997 0.054940230068109275 -0.047763452912246894 -0.07281564625841665 0.061332939990105084 -0.056322848216742105 -0.08108136862265915 -0.03344935016854531 -0.028980170674747473 0.04509379540916711 0.08021252817210045 -0.006824368849494708 0.03655401850823828 0.019597771375069656 0.007854635384706835 -0.009152773035061373 -0.008275612734009077 -0.05305860928720836 -0.02351815188652099 -0.05145963718008367 0.05015595714262644 0.05799789183417317 -0.036093593896706265 0.03497528914472907 0.07018245051636623 -0.04832524179354635 -0.042283243884152596 -0.0788033901884158 -0.057600555783696314 0.009103512718496395 0.0017538306859051223 -0.07724295886069094 0.07955642753299066 0.011727867231345529 -0.04288435379994775 0.06312237297800646 -0.0037717422178498994 -0.05347049000577199 0.0067823610754313285 0.05432450477856665 0.02233832905499153 -0.048329536104872686 -0.06814235750065345 0.027571716028036097 -0.07978300404943617 0.005812925656866863 -0.027045884223450466 -0.01902101344063855 -0.06406816845746979 0.04548820669279319 0.006947375094665864 0.0482274230047475 0.001230315851432781 -0.0217742627111221 0.01484775096087916 0.04197987052005628 0.02128879477398775 -0.04862908758627753 0.031007103977057165 0.05141892363688075 0.04681530866023098 0.019859898410679713 -0.04613289909440779 0.06107015175081082 0.021271706363999707 0.05954444249248422 0.0040089819939848476 0.04583391068992082 0.010641119639506133 0.04266333153042197 -0.061388621377795896 -0.030618653271279307 -0.04237947111572281 0.062060751201706926 0.07917608712909222 0.005288016047480193 0.02988591630751984 0.05852677078079166 -0.00947153900639161 -0.07860353761673934 -0.04457594730102563 -0.06436842571129796 -0.02316919709088476 0.05565965155449937 0.03679262594034288 0.0164286632861233 -0.06515595072391933 0.06619244509833405 -0.03379713945388296 -0.06914408727651714 -0.0809309773801152 -0.007338512615551657 0.07994339085152508 -0.05625476470867333 0.04120954737885715 -0.026037890349070995 0.038489588690302945 0.054505575177087345 0.0030531744116649023 0.07710562240616253 0.057481371798917796 0.0672828806400268 -0.0592526601732538 -0.01108455502537975 0.0003565362025544916 0.018197306468021313 -0.040418878230540176 0.025455443630560168 -0.0021701520372318928 -0.059295655635900626 0.03725042076964502 -0.03363949702856167 0.013883413224049068 -0.02210565561057213 -0.054183375826498494 -0.07324313751779457 0.07680150746357109 -0.015001453283039909 0.05922947423096997 -0.06383633585141539 0.05490817373809315 -0.0446410707649535 -0.061139960144624486 0.0037419249759639422 0.04665508600707452 -0.07353427336368677 -0.05610711580331064 -0.06517488042715566 -0.05972485508663132 0.05043424170589844 0.0012591675380243944 0.029211901830265147 0.023756408132069237 -0.027810931936740314 -0.02914732837479434 -0.020501903619485208 0.06480187422475372 -0.015837021659027048 -0.04153256369709649 0.01991407057999893 0.03930109176012099 0.018571594134983813 -0.016665062828215144 0.021730405636545422 -0.07202088736173194 -0.08060038105245197 -0.05175776555898575 -0.06318770719919228 -0.024686871889728713 -0.024854667829228093 -0.03200529348422854 0.04314973374919304 -0.03406774512556235 -0.03662635326969897 0.057547744018484115 0.013965598507801949 0.04814075818501001 0.0681028010072427 0.04667812381495587 -0.031350164972413636 0.037565967291664504 -0.02558206681776301 0.020290808394510515 -0.0684208555406319 0.055014012558189634 -0.011999127761329303 0.04235341449339708 0.04596331020741104 0.0804203244038961 -0.0026948698499597995 -0.050781640070515666 0.07765597049212514 -0.02079334623427511 -0.03615599171784499 0.07920340821942551 0.06940675888168729 0.01625287231914438 0.029420699423426927 -0.0069020677986417756 0.03160691769794573 0.007145466823445176 0.032454189522669694 -0.054220274814412835 0.04334104513748491 0.041896567542974106 -0.07112031411998718 0.054731205174377906 -0.052431549336360225 -0.042533102127900936 -0.06355115136746264 -0.021017213802323575 0.014246779510336288 0.00762222149653774 -0.048748502195396025 0.05646484693908557 -0.029214252415783404 0.06867809542514486 -0.024730345522068327 0.06221780124049886 0.04474354449416454 -0.008116073568906382 -0.03176436009272256 -0.057908454007918705 -0.04183904486203499 0.06321535129957395 0.051497985105261435 -0.01784483935358004 0.005110021194121003 -0.036431012942929226 -0.03616886165890345 0.0640269188807534 -0.010369128257740709 0.05677120776842842 -0.005335907272811025 0.008545280422580195 -0.006587876846154209 -0.008254851255594164 0.023564024450129784 0.00910523873734484 0.04815984712706345 0.06846180680895697 0.027000012264163556 0.0748736896737485 -0.07575365349957305 0.02957659505633492 -0.021005701545923655 0.08075093606622719 0.0038978466702533077 0.07849153592204308 0.07336484379104738 -0.006822321784644009 0.07053396967638811 -0.07870560055814796 0.005273742719920538 -0.07800244922991141 0.06472510170105886 -0.015570714302306499 0.024220884570770568 0.05413881955149899 -0.037176636542139256 -0.043335726500560744 0.06287610893867882 -0.04289612236436783 0.07096913370859953 -0.05723941725450389 -0.0216679165628018 0.06579431474227743 0.026078783829115673 0.02629455733643543 -0.032064687523429815 -0.02598243694181191 0.06761547055005376 -0.039834350454072534 -0.021479446091698946 0.07529558128652494 -0.04823693691974882 -0.026672808675112056 -0.071029787305693 0.03877163160692808 0.045133578976526784 0.032294760872932024 0.05158825206114434 0.015949926512782847 -0.030371795032456628 0.0059617208097679925 -0.0722182328285215 0.010721254685718412 -0.015532038079263843 0.018933790756259478 0.06573955554978561 0.0639809387478488 -0.009650173458927574 0.03526238532542991 0.053401035517963186 -0.07027934182214961 0.04397299934021234 0.06666705601507406 0.054390428591293116 -0.0794280370064304 0.02565529197198342 0.04712676800225077 0.0046523995030393756 -0.02253120057577395 0.07718442658449998 -0.04317675570019242 0.0330356456820681 -0.06082175717467188 -0.06071151609625207 0.04842321430672514 0.03243189639043313 0.013023813534998943 -0.05857975885691426 -0.025752834056898447 -0.041940241130317954 0.0425721983546548 -0.011195996815848042 0.07396128373392341 0.07727224135324748 -0.019742401314907468 -0.051674647051159456 0.0524689054937818 -0.010286770213468494 -0.0015068932053750733 0.049312321296073575 -0.07014760796029183 0.0221801206822234 0.051700591949476404 -0.003632812619747877 -0.046965466558986445 -0.07629622199880871 0.08057265839022504 -0.047502796418407676 -0.028967986336869388 -0.0748041926567869 0.022112472059292287 -0.019175019736708272 -0.00766588549027164 0.06250284257570471 0.0056579120317523796 -0.032423123978386675 -0.007042137374442675 0.0694536776775623 0.06065726476076572 0.02127997401619036 0.044827115639083925 -0.04250410970984998 0.04084575950251379 -0.0357838552857184 -0.03142326034850889 0.019636523213888382 0.0639186902697563 0.019942251318215892 0.06709363777001259 0.0508406279298689 0.0624719469969523 0.015153628559333401 0.03501730621024145 -0.07074791828269074 0.04307707091648813 0.010806997159176435 0.033832995759922185 0.05261911279585152 -0.026295500758440685 0.005222787053842867 0.05445162789105018 0.04319625731855421 -0.07696641308256723 0.0018688196192271772 -0.06530466875023969 0.055476346071481 0.0207487553618476 0.031202376468695142 0.04689685676209465 0.017817241785983637 0.05125324992476671 -0.0407201857958073 -0.005832320310254699 0.0067669764754623996 0.03433548925756835 -0.02971787765724275 0.03496426185664317 0.005137591416152026 -0.016994723741138112 -0.0665486282635964 -0.021035456920356466 -0.028468567704522586 0.02981343258071409 0.0015792415640782237 -0.0505587073884258 -0.06763700699574804 -0.07702076760601571 0.002656887388442969 0.02624428651813579 0.05075153335844604 0.056967724634371164 -0.028172661643818327 -0.0798504823291355 0.0588847218141931 -0.04336568349188298 0.03413537085980202 0.0726657768478218 -0.04511441706260551 -0.05155002598236699 0.038558992263992814 -0.02125008818377027 0.05301163104116774 -0.008732642189641801 0.07380306372795897 -0.006836260922200368 0.017118572864260648 -0.05985154074560919 -0.004760701161444544 -0.01539740294356863 -0.004918481900937632 -0.07986472997301498 0.06680169432345914 -0.03722143303508869 0.07745623530997517 0.05461999272406559 0.036114523527686127 -0.06409754091844719 0.06252344360665871 0.009631959046184288 0.04443331857311536 0.06821206051583814 -0.031244371023217248 0.03201908116361207 0.04079028705911528 0.017204954257033292 0.03242095151674451 0.04952689386472417 -0.03362535922018508 -0.01978380355844045 -0.017521952360224455 -0.029254196052902783 -0.025917978383039803 0.058899264744854435 0.06156898124485838 0.02402950134371444 0.02927792037044734 -0.015413698785402344 0.016392881387216382 0.05559819707982566 -0.058855093045195525 0.030843013814906783 -0.013739688709477865 0.0325794878852166 -0.018234326244772753 -0.03489121860331064 -0.00022483013950350128 0.022314827732223125 0.060104707651686795 -0.052055670716490955 0.0617871160644099 -0.05297264835138833 0.041361910599257395 0.0695560989818497 -0.026117364569300243 -0.019278228623494396 -0.01003190969530364 -0.0012016388894066643 0.05945063300170189 -0.05924496624915426 0.006710059173973201 -0.02347801116492633 -0.010066382481923652 0.0009412522252898042 0.060469475133808376 -0.07595027408225961 -0.0344926359123219 -0.05692034602508067 -0.028272573879172695 0.007525342352732334 -0.013192670739271467 -0.07734526217112996 -0.05168110815861028 0.07780219652160578 0.010951914907312746 -0.03440261453774566 0.04615345132636947 0.028847227187093386 -0.027090721054885823 0.0363061726563724 -0.07128510287823848 -0.04568131488113447 0.032136471218870144 0.002696098738516242 0.05582028514653872 0.03641515198623316 0.025537592579459617 0.04070261135994195 -0.002298661161962423 0.019982683549580632 -0.053337453679168076 -0.007098961308200369 0.03375279401168166 -0.009586741945201774 -0.05447118359622083 0.00810493946692703 -0.05242503021400829 0.03722146997426401 0.04677362956173367 0.003274955709480276 0.04210520355557143 0.035168386379736155 0.027175990193226154 -0.04984116383229839 0.0709010686323483 0.0448050878041556 -0.025301212451208394 -0.012012993851477624 -0.026179935906360675 -0.0312379284231242 0.023433409641325578 -0.06867696632523994 0.05981574993295444 -0.06101443327286421 -0.051181515406019895 -0.06784247182924531 -0.01710477672437072 0.07124693844029356 0.03750076556805232 0.08090918832787233 -0.006070927817899557 -0.07342371728248356 0.022895671033688267 0.05653585053051052 -0.07895540615035192 0.04703907696840956 -0.06586318537960355 0.017069099826391584 0.010179098560630123 0.0655358237603787 -0.026085121277200446 -0.05253881412948842 0.051852613425849736 -0.02519949518191892 0.028466741972562867 -0.04617082452304656 -0.04759171996673664 0.02860630973457716 -0.01924925509050239 0.018756453858354352 -0.039784606679998266 0.020383293060636867 -0.02992378689394741 -0.07769912708209499 -0.026009311967052612 0.063334693692227 -0.015212511191138117 -0.047751865644392794 0.03704692904710756 0.04838530368397259 0.040149066033497924 0.026052703033914465 -0.015368378949699099 0.06627004161492134 0.0035892377634922507 -0.04311668595358167 0.02372205145079169 -0.056575355127779274 -0.004993992222832061 -0.0537918402085699 0.05021806081008684 0.015765214772734307 -0.06237158786556278 -0.020198709663448985 -0.030436981723561886 -0.007752840762215871 -0.0017558911213775702 -0.032630526116771995 -0.03871565523461636 -0.021052678583320494 0.005622117366545595 -0.04843326455740084 0.03349847964942183 0.028895575355310732 0.07260582940085286 -0.04450407635661291 0.07897153059139056 0.017299780217228902 0.024040909958910797 -0.06998552777273637 -0.05899807651005325 -0.061516938101545765 0.018234630898543838 0.01882939097765554 0.05183060734650932 -0.009144004551107185 -0.03588874456505051 -0.01951555942561351 0.04296665534012356 0.059578393522695366 -0.04046140443724204 -0.0681184194042415 -0.05433065292282044 0.07211174995237438 0.0018760450427841163 -0.04533172448995399 -0.0790182175542818 0.02520993763749907 0.06066926168331871 0.08024706305279433 0.055350109121503954 0.02299926139866533 0.06131317118592919 -0.020825396898773545 0.05453752310686505 -0.06419742898092609 0.05850136025410296 0.03292803264845273 0.04742428193687462 -0.007312937637769551 -0.013937889971599116 0.03159884206903457 0.06130299304563422 -0.02926658268753242 0.07310624357796763 -0.0667437412142563 0.029146101752444975 0.07844154369613321 0.015315668861644344 0.06409030197318805 -0.0006666829574365485 0.06072061748602553 -0.062045154635836264 0.003991015806456499 -0.02500541849221411 -0.052678469140475095 -0.05833731382974912 0.025530893142564764 0.02678485085937471 -0.054512024349180906 -0.03016424596831263 -0.048971375427320295 -0.05597513182773205 -0.021301315945777374 0.033088687316217905 -0.05545313044188451 0.041352725510902605 -0.058851677342352096 -0.0659400249074876 0.050159239063712224 -0.04750091999894972 0.0342896132191087 -0.011958191903212331 0.0733536046881402 -0.05168360128855354 -0.016015720622924404 -0.06395492964033139 0.02355676903709923 -0.011539112653415715 0.07345665924622452 -0.02090048366656569 -0.04311654816819152 0.07052894987663688 0.03283342258225114 -0.005149750145890156 -0.07624110988233511 0.00603241581932959 0.01823460211771398 0.0541434437470352 -0.0039320444904149265 0.07813590661778982 0.04564222016518532 -0.07912337152660026 -0.057069861605210895 0.06165489300398491 0.0036332444077358667 0.003920803801162803 -0.01025390711373371 0.006894869267408801 0.01685299930539093 -0.01560308895887641 -0.04148480444055765 -0.05661264609397733 0.03988734291152882 0.020435237926102676 0.008505445034618753 -0.04155391189652308 0.07562394759088631 -0.058406812357515436 -0.049167686974902085 0.07769903839785813 0.05998241563944537 0.03728861444166122 0.031585031500959565 -0.057473215870735936 -0.0040035377336485045 -0.013025894215254588 -0.005164494617900681 -0.01733720708031121 0.028013581763349477 0.023073677067002377 -0.030945979764294487 0.023350634614951585 0.06566690208406997 0.06330015284385448 -0.011733065608214258 -0.05470078134439826 -0.05384398669092514 -0.0699538266329091 0.06926631288889126 -0.0409546826304391 0.06893431763160074 -0.037661633108202044 -0.07269341044811069 -0.07912101844825423 -0.07753158019875314 -0.05303785203904665 -0.07284462779867364 -0.04363767419378627 -0.04730457332515827 0.054225054698375075 0.08083358040799321 0.034161656746743485 -0.0249132765521377 -0.07946954795236275 -0.01331659955734281 -0.05488368450012061 0.0666083588345483 0.049893777606552475 -0.07225090783306906 -0.07519305309280389 0.05947218848353561 0.05435894493180479 0.02191654788203984 -0.03210327846154623 0.004096642358490291 0.014325556645269313 0.07511795597599943 0.01916527738803378 -0.005728837741194176 -0.03459119416448928 -0.04996694890058473 0.06283743460414204 -0.06249245805948545 0.061750030341032575 0.019386300790663114 0.02402655323493079 -0.06532788709928466 -0.008728935052568568 0.05627871942393714 -0.03611262180224916 0.06744637501633721 0.03056893487872428 0.023967768352191235 -0.0043660221632226826 -0.06673282731206437 0.0438441387267645 -0.0180159153256593 0.07857477786261474 -0.029277560194602918 -0.05089098735686516 -0.024544241802094198 -0.07157259692936142 0.04841097799716479 0.064947899619368 0.04451448073991418 0.01217243466319326 -0.044214969219294104 -0.005567020509199619 -0.07711708231317901 -0.027605313378863128 0.026748278582980317 
